{"learner":{"attributes":{"scikit_learn":"{\"_estimator_type\": \"regressor\"}"},"feature_names":["photos_count","superhost","latitude","longitude","guests","bedrooms","beds","baths","registration","professional_management","min_nights","cancellation_policy","cleaning_fee","extra_guest_fee","num_reviews","ttm_blocked_days","ttm_total_days","distance_from_city_center","city_population","luxury_score","basic_count","comfort_count","kitchen_count","safety_count","outdoor_count","family_count","services_count","has_pool","has_hot_tub","has_gym","has_beach_access","has_dedicated_workspace","has_pets_allowed","has_free_parking_on_premises","has_air_conditioning","total_amenities","comfort_to_total_ratio","rarity_score","avg_rating","listing_type_apartment","listing_type_bungalow","listing_type_condo","listing_type_home","listing_type_hospitality","listing_type_loft","listing_type_luxury_unique","listing_type_nature_stay","listing_type_other","listing_type_unique_stay","listing_type_villa","room_type_entire_home","room_type_hotel_room","room_type_private_room","room_type_shared_room","geographic_zone_Africa","geographic_zone_Asia Pacific","geographic_zone_Europe","geographic_zone_Latin America","geographic_zone_Middle East","geographic_zone_Northern America"],"feature_types":["float","float","float","float","float","float","float","float","float","float","float","float","float","float","float","float","float","float","float","float","float","float","float","float","float","float","float","float","float","float","float","float","float","float","float","float","float","float","float","float","float","float","float","float","float","float","float","float","float","float","float","float","float","float","float","float","float","float","float","float"],"gradient_booster":{"model":{"cats":{"enc":[],"feature_segments":[],"sorted_idx":[]},"gbtree_model_param":{"num_parallel_tree":"1","num_trees":"200"},"iteration_indptr":[0,1,2,3,4,5,6,7,8,9,10,11,12,13,14,15,16,17,18,19,20,21,22,23,24,25,26,27,28,29,30,31,32,33,34,35,36,37,38,39,40,41,42,43,44,45,46,47,48,49,50,51,52,53,54,55,56,57,58,59,60,61,62,63,64,65,66,67,68,69,70,71,72,73,74,75,76,77,78,79,80,81,82,83,84,85,86,87,88,89,90,91,92,93,94,95,96,97,98,99,100,101,102,103,104,105,106,107,108,109,110,111,112,113,114,115,116,117,118,119,120,121,122,123,124,125,126,127,128,129,130,131,132,133,134,135,136,137,138,139,140,141,142,143,144,145,146,147,148,149,150,151,152,153,154,155,156,157,158,159,160,161,162,163,164,165,166,167,168,169,170,171,172,173,174,175,176,177,178,179,180,181,182,183,184,185,186,187,188,189,190,191,192,193,194,195,196,197,198,199,200],"tree_info":[0,0,0,0,0,0,0,0,0,0,0,0,0,0,0,0,0,0,0,0,0,0,0,0,0,0,0,0,0,0,0,0,0,0,0,0,0,0,0,0,0,0,0,0,0,0,0,0,0,0,0,0,0,0,0,0,0,0,0,0,0,0,0,0,0,0,0,0,0,0,0,0,0,0,0,0,0,0,0,0,0,0,0,0,0,0,0,0,0,0,0,0,0,0,0,0,0,0,0,0,0,0,0,0,0,0,0,0,0,0,0,0,0,0,0,0,0,0,0,0,0,0,0,0,0,0,0,0,0,0,0,0,0,0,0,0,0,0,0,0,0,0,0,0,0,0,0,0,0,0,0,0,0,0,0,0,0,0,0,0,0,0,0,0,0,0,0,0,0,0,0,0,0,0,0,0,0,0,0,0,0,0,0,0,0,0,0,0,0,0,0,0,0,0,0,0,0,0,0,0],"trees":[{"base_weights":[5.1431E-3,-6.2141585E-1,4.238425E-1,-1.1064522E0,-2.128739E-1,-1.2387602E-1,7.5989604E-1,-1.3445657E0,-1.7496109E-1,-3.6895746E-1,5.1883006E-1,5.7218656E-2,-1.0316163E0,4.6889493E-1,1.0648541E0,-1.1461513E0,-1.8077658E0,-4.907096E-1,2.2742023E-1,-7.8125584E-1,-1.3596135E-1,1.4967658E-1,8.421011E-1,8.281986E-1,-1.546218E-1,-2.9337904E-1,-1.223746E0,2.6595232E-1,9.91979E-1,1.2138613E0,5.9966475E-1,-4.3439394E-1,-1.2601646E0,-2.1353738E0,-1.5301263E0,2.774039E-1,-7.1887153E-1,-3.0665967E-1,5.253482E-1,-1.1695209E0,-5.722448E-1,-3.9172477E-1,1.11251734E-1,3.0025196E-1,-4.422301E-1,9.8376054E-1,1.6222824E-1,1.1729013E0,4.0133187E-1,-4.0716913E-1,3.7751687E-1,-5.9254193E-1,8.406714E-2,-1.3423052E0,-8.6523753E-1,4.854614E-1,-7.7551246E-2,7.6985353E-1,1.2820126E0,1.3735161E0,6.6337615E-1,3.536782E-1,1.1892064E0,-2.9453581E-2,7.2617815E-3,-7.90517E-2,-5.3134322E-2,-1.0913994E-1,-1.41026825E-2,-6.1559718E-2,-9.017591E-2,-1.5886374E-3,4.1810248E-2,-4.8285615E-2,-2.3154883E-2,2.2446888E-2,-3.3862676E-2,-5.6104884E-3,4.2526282E-2,-5.0920546E-2,-9.195619E-2,-2.199517E-2,-5.5985738E-2,-4.1435263E-3,-3.045751E-2,1.272783E-2,-3.1791884E-2,-4.0619406E-3,2.983639E-2,-3.777818E-2,8.070985E-5,4.1782673E-2,7.513686E-2,5.0072003E-2,-5.569877E-3,6.2904276E-2,2.0710038E-2,9.252585E-3,6.552977E-2,7.1988024E-2,-2.425893E-2,8.485609E-3,4.759197E-2,-5.0996955E-2,-1.3376759E-2,-2.1126237E-2,1.24489525E-2,-7.864762E-2,-5.8481943E-2,-5.6838762E-2,-1.9864416E-2,3.4487005E-2,-9.931269E-4,-1.1857918E-2,1.643878E-2,4.4215713E-2,1.1421989E-2,5.3316504E-2,7.957832E-2,7.163009E-2,1.944628E-2,1.1297271E-2,4.0677775E-2,3.2683506E-3,3.5913147E-2,4.334248E-2,7.458975E-2],"categories":[],"categories_nodes":[],"categories_segments":[],"categories_sizes":[],"default_left":[0,0,0,0,0,0,0,0,0,0,0,0,0,0,0,0,0,0,0,0,0,0,0,0,0,0,0,0,0,0,0,0,0,0,0,0,0,0,0,0,0,0,0,0,0,0,0,0,0,0,0,0,0,0,0,0,0,0,0,0,0,0,0,0,0,0,0,0,0,0,0,0,0,0,0,0,0,0,0,0,0,0,0,0,0,0,0,0,0,0,0,0,0,0,0,0,0,0,0,0,0,0,0,0,0,0,0,0,0,0,0,0,0,0,0,0,0,0,0,0,0,0,0,0,0,0,0],"id":0,"left_children":[1,3,5,7,9,11,13,15,17,19,21,23,25,27,29,31,33,35,37,39,41,43,45,47,49,51,53,55,57,59,61,63,65,67,69,71,73,75,77,79,81,83,85,87,89,91,93,95,97,99,101,103,105,107,109,111,113,115,117,119,121,123,125,-1,-1,-1,-1,-1,-1,-1,-1,-1,-1,-1,-1,-1,-1,-1,-1,-1,-1,-1,-1,-1,-1,-1,-1,-1,-1,-1,-1,-1,-1,-1,-1,-1,-1,-1,-1,-1,-1,-1,-1,-1,-1,-1,-1,-1,-1,-1,-1,-1,-1,-1,-1,-1,-1,-1,-1,-1,-1,-1,-1,-1,-1,-1,-1],"loss_changes":[6.254446E3,1.8921709E3,2.6305344E3,9.68146E2,5.923546E2,8.93502E2,7.854995E2,3.174839E2,1.1318726E2,4.1047095E2,1.08708954E2,7.403158E2,1.2786182E2,4.8104773E2,2.9899658E2,1.972146E2,9.14187E1,8.7651276E1,6.2535095E1,1.2454779E2,1.7278264E2,3.818983E1,4.6647247E1,1.4328717E2,4.780453E2,2.1278376E1,2.9314331E1,2.4645187E2,8.063794E1,2.86833E2,1.5199472E2,3.0389198E1,1.313855E2,4.1134033E1,4.4117798E1,1.9894915E1,2.3859924E1,3.978683E1,5.2339943E1,5.2664978E1,7.23226E1,9.0135666E1,1.489774E2,3.861653E1,1.2100424E1,2.9643585E1,1.9630108E1,3.4378723E1,8.589267E1,3.4821472E2,1.3649069E2,1.4312359E1,7.122814E0,1.9546204E1,2.2547287E1,2.0584827E2,8.27651E1,4.441687E1,3.489026E1,1.4703271E2,4.82977E1,7.805265E1,2.8847168E1,0E0,0E0,0E0,0E0,0E0,0E0,0E0,0E0,0E0,0E0,0E0,0E0,0E0,0E0,0E0,0E0,0E0,0E0,0E0,0E0,0E0,0E0,0E0,0E0,0E0,0E0,0E0,0E0,0E0,0E0,0E0,0E0,0E0,0E0,0E0,0E0,0E0,0E0,0E0,0E0,0E0,0E0,0E0,0E0,0E0,0E0,0E0,0E0,0E0,0E0,0E0,0E0,0E0,0E0,0E0,0E0,0E0,0E0,0E0,0E0,0E0,0E0,0E0,0E0],"parents":[2147483647,0,0,1,1,2,2,3,3,4,4,5,5,6,6,7,7,8,8,9,9,10,10,11,11,12,12,13,13,14,14,15,15,16,16,17,17,18,18,19,19,20,20,21,21,22,22,23,23,24,24,25,25,26,26,27,27,28,28,29,29,30,30,31,31,32,32,33,33,34,34,35,35,36,36,37,37,38,38,39,39,40,40,41,41,42,42,43,43,44,44,45,45,46,46,47,47,48,48,49,49,50,50,51,51,52,52,53,53,54,54,55,55,56,56,57,57,58,58,59,59,60,60,61,61,62,62],"right_children":[2,4,6,8,10,12,14,16,18,20,22,24,26,28,30,32,34,36,38,40,42,44,46,48,50,52,54,56,58,60,62,64,66,68,70,72,74,76,78,80,82,84,86,88,90,92,94,96,98,100,102,104,106,108,110,112,114,116,118,120,122,124,126,-1,-1,-1,-1,-1,-1,-1,-1,-1,-1,-1,-1,-1,-1,-1,-1,-1,-1,-1,-1,-1,-1,-1,-1,-1,-1,-1,-1,-1,-1,-1,-1,-1,-1,-1,-1,-1,-1,-1,-1,-1,-1,-1,-1,-1,-1,-1,-1,-1,-1,-1,-1,-1,-1,-1,-1,-1,-1,-1,-1,-1,-1,-1,-1],"split_conditions":[4.0430512E0,2.11557E1,2.44473E1,6E0,3E0,1E0,5.170484E0,1E0,3E0,2.8332133E0,3.0910425E0,-3.35854E1,-3.35854E1,1.5E0,1.83836E1,-3.35854E1,4E0,-3.29446E1,1E0,1E0,5E0,1E0,1E0,3.01E4,2E0,5.1817837E0,4E0,1.90552E1,3E0,1E0,5E0,1.384898E2,1E0,1.386097E2,1.08481E5,2.56731E1,3.3E1,-3.30964E1,2.6390574E0,1E0,1E0,2.09917E1,1E0,2.3025851E0,3E0,4.9214287E0,-8.0043E0,1.03E2,3E0,-1.230927E2,3E0,1E0,2.56731E1,1E0,1E0,1E0,4.1E1,1E0,1E0,1E0,1E0,4.864286E0,1.5E0,-2.9453581E-2,7.2617815E-3,-7.90517E-2,-5.3134322E-2,-1.0913994E-1,-1.41026825E-2,-6.1559718E-2,-9.017591E-2,-1.5886374E-3,4.1810248E-2,-4.8285615E-2,-2.3154883E-2,2.2446888E-2,-3.3862676E-2,-5.6104884E-3,4.2526282E-2,-5.0920546E-2,-9.195619E-2,-2.199517E-2,-5.5985738E-2,-4.1435263E-3,-3.045751E-2,1.272783E-2,-3.1791884E-2,-4.0619406E-3,2.983639E-2,-3.777818E-2,8.070985E-5,4.1782673E-2,7.513686E-2,5.0072003E-2,-5.569877E-3,6.2904276E-2,2.0710038E-2,9.252585E-3,6.552977E-2,7.1988024E-2,-2.425893E-2,8.485609E-3,4.759197E-2,-5.0996955E-2,-1.3376759E-2,-2.1126237E-2,1.24489525E-2,-7.864762E-2,-5.8481943E-2,-5.6838762E-2,-1.9864416E-2,3.4487005E-2,-9.931269E-4,-1.1857918E-2,1.643878E-2,4.4215713E-2,1.1421989E-2,5.3316504E-2,7.957832E-2,7.163009E-2,1.944628E-2,1.1297271E-2,4.0677775E-2,3.2683506E-3,3.5913147E-2,4.334248E-2,7.458975E-2],"split_indices":[14,2,2,4,5,52,14,52,7,14,14,2,2,7,3,2,15,2,27,15,22,54,54,18,7,14,19,3,5,52,4,3,15,3,18,3,35,2,14,54,54,3,54,14,7,38,3,15,5,3,7,1,3,1,7,52,35,54,8,54,1,38,7,0,0,0,0,0,0,0,0,0,0,0,0,0,0,0,0,0,0,0,0,0,0,0,0,0,0,0,0,0,0,0,0,0,0,0,0,0,0,0,0,0,0,0,0,0,0,0,0,0,0,0,0,0,0,0,0,0,0,0,0,0,0,0,0],"split_type":[0,0,0,0,0,0,0,0,0,0,0,0,0,0,0,0,0,0,0,0,0,0,0,0,0,0,0,0,0,0,0,0,0,0,0,0,0,0,0,0,0,0,0,0,0,0,0,0,0,0,0,0,0,0,0,0,0,0,0,0,0,0,0,0,0,0,0,0,0,0,0,0,0,0,0,0,0,0,0,0,0,0,0,0,0,0,0,0,0,0,0,0,0,0,0,0,0,0,0,0,0,0,0,0,0,0,0,0,0,0,0,0,0,0,0,0,0,0,0,0,0,0,0,0,0,0,0],"sum_hessian":[2.3839E4,9.549E3,1.429E4,4.365E3,5.184E3,5.434E3,8.856E3,3.476E3,8.89E2,4.273E3,9.11E2,4.531E3,9.03E2,4.533E3,4.323E3,2.436E3,1.04E3,4.98E2,3.91E2,1.542E3,2.731E3,4.26E2,4.85E2,9.76E2,3.555E3,1.87E2,7.16E2,3.267E3,1.266E3,3.273E3,1.05E3,3.37E2,2.099E3,4.74E2,5.66E2,1.14E2,3.84E2,1.4E2,2.51E2,5.38E2,1.004E3,1.342E3,1.389E3,3.4E2,8.6E1,4.01E2,8.4E1,5.39E2,4.37E2,2.411E3,1.144E3,1.04E2,8.3E1,5.36E2,1.8E2,1.993E3,1.274E3,7.19E2,5.47E2,2.536E3,7.37E2,7.42E2,3.08E2,2.66E2,7.1E1,7.97E2,1.302E3,4.62E2,1.2E1,2.73E2,2.93E2,7.4E1,4E1,1.94E2,1.9E2,4.6E1,9.4E1,8.5E1,1.66E2,4.41E2,9.7E1,8.1E2,1.94E2,5.55E2,7.87E2,1.166E3,2.23E2,1.49E2,1.91E2,5E1,3.6E1,3.14E2,8.7E1,2E1,6.4E1,4.84E2,5.5E1,3.54E2,8.3E1,9.7E1,2.314E3,8.41E2,3.03E2,4.4E1,6E1,2E1,6.3E1,2.26E2,3.1E2,1.13E2,6.7E1,1.419E3,5.74E2,9.15E2,3.59E2,5.93E2,1.26E2,3.25E2,2.22E2,2.392E3,1.44E2,1.89E2,5.48E2,4.15E2,3.27E2,1.51E2,1.57E2],"tree_param":{"num_deleted":"0","num_feature":"60","num_nodes":"127","size_leaf_vector":"1"}},{"base_weights":[2.5704685E-3,-3.76208E-1,8.962373E-1,-8.374147E-1,4.3839738E-2,4.2594978E-1,1.30312E0,-1.0141456E0,-2.1858595E-1,-3.196543E-1,3.7545264E-1,-3.6106303E-2,6.785257E-1,1.0777932E0,1.6113895E0,-1.3329332E0,-6.414335E-1,-3.5045642E-1,3.481674E-1,-1.0180243E0,-1.3235967E-1,6.349876E-2,5.7462025E-1,-4.5759186E-1,2.1717876E-1,2.77124E-1,8.878551E-1,7.5569147E-1,1.2777587E0,1.7020239E0,1.1183316E0,-1.7089922E0,-1.1346012E0,-1.0531629E0,-4.5159268E-1,-6.144496E-1,-9.316076E-2,3.5197802E-2,6.226896E-1,-3.058903E-1,-1.1916522E0,5.3938246E-1,-2.6923817E-1,-3.0918357E-1,2.1584383E-1,3.7992588E-1,8.208129E-1,-6.271745E-1,-4.257676E-2,-7.1968876E-2,4.4459155E-1,4.090167E-3,4.268251E-1,-5.221375E-3,9.2824274E-1,8.824195E-1,4.521636E-1,1.3701429E0,7.845498E-1,1.4424531E0,1.809375E0,1.3384453E0,8.8767886E-1,-1.00590445E-1,-7.2593234E-2,-7.019206E-2,-4.6103846E-2,-3.889463E-2,-6.7864254E-2,-1.0771721E-2,-3.2396816E-2,-9.033235E-3,-3.8823E-2,-1.9410936E-2,8.623972E-3,-1.2864098E-2,2.1519406E-2,1.8199345E-2,5.267882E-2,-5.110544E-2,-9.303938E-3,-7.330826E-2,-4.9218543E-2,4.347773E-2,1.0941758E-2,-2.354549E-2,1.1605075E-2,-2.0965645E-2,1.7203404E-2,2.074355E-3,2.6683712E-2,1.2225531E-2,4.385312E-2,2.768899E-2,4.726605E-2,-3.8198505E-2,-7.0692236E-3,-7.857627E-3,4.5490332E-2,-1.2274901E-2,9.278131E-3,1.2389342E-2,3.8570818E-2,-1.3248645E-2,1.166667E-2,7.2312355E-3,3.1364825E-2,-1.7653711E-2,3.216436E-2,4.057732E-2,5.853739E-2,3.8430005E-2,5.7833184E-2,1.2107755E-2,3.1132935E-2,5.857141E-2,7.509398E-2,2.7980266E-2,5.2714087E-2,6.594127E-2,8.804437E-2,8.6042084E-2,1.0207281E-1,5.1400777E-2,7.621296E-2,2.5330914E-2,5.3835727E-2],"categories":[],"categories_nodes":[],"categories_segments":[],"categories_sizes":[],"default_left":[0,0,0,0,0,0,0,0,0,0,0,0,0,0,0,0,0,0,0,0,0,0,0,0,0,0,0,0,0,0,0,0,0,0,0,0,0,0,0,0,0,0,0,0,0,0,0,0,0,0,0,0,0,0,0,0,0,0,0,0,0,0,0,0,0,0,0,0,0,0,0,0,0,0,0,0,0,0,0,0,0,0,0,0,0,0,0,0,0,0,0,0,0,0,0,0,0,0,0,0,0,0,0,0,0,0,0,0,0,0,0,0,0,0,0,0,0,0,0,0,0,0,0,0,0,0,0],"id":1,"left_children":[1,3,5,7,9,11,13,15,17,19,21,23,25,27,29,31,33,35,37,39,41,43,45,47,49,51,53,55,57,59,61,63,65,67,69,71,73,75,77,79,81,83,85,87,89,91,93,95,97,99,101,103,105,107,109,111,113,115,117,119,121,123,125,-1,-1,-1,-1,-1,-1,-1,-1,-1,-1,-1,-1,-1,-1,-1,-1,-1,-1,-1,-1,-1,-1,-1,-1,-1,-1,-1,-1,-1,-1,-1,-1,-1,-1,-1,-1,-1,-1,-1,-1,-1,-1,-1,-1,-1,-1,-1,-1,-1,-1,-1,-1,-1,-1,-1,-1,-1,-1,-1,-1,-1,-1,-1,-1],"loss_changes":[8.1328423E3,3.2690176E3,1.3679932E3,8.7940967E2,1.0647231E3,3.873659E2,2.6457812E2,7.42458E2,1.337536E2,5.510604E2,2.8694708E2,1.2543092E2,1.800719E2,1.4189404E2,7.035693E1,2.4948535E2,2.2510303E2,9.850093E1,2.9018063E1,1.0980426E2,3.0577725E2,1.02320885E2,1.3480933E2,3.1010582E1,4.8296803E1,3.0122013E1,5.086255E1,3.2373596E1,6.1212402E1,3.539795E1,1.1707428E1,8.755542E1,1.2516162E2,7.512555E1,9.153024E1,5.0178528E1,5.7754086E1,1.8488771E1,1.9681389E1,1.4912584E1,3.9298157E1,5.9395264E1,2.7936404E2,3.7770027E1,7.085476E1,1.0588167E2,4.083673E1,2.0692093E1,1.4219466E1,1.4524863E1,2.6244652E1,1.6222221E1,2.6838074E1,1.4213431E1,3.7225708E1,1.783957E1,8.9079895E0,2.8345215E1,1.26371E1,1.3582031E1,1.6232666E1,5.816345E0,8.602837E0,0E0,0E0,0E0,0E0,0E0,0E0,0E0,0E0,0E0,0E0,0E0,0E0,0E0,0E0,0E0,0E0,0E0,0E0,0E0,0E0,0E0,0E0,0E0,0E0,0E0,0E0,0E0,0E0,0E0,0E0,0E0,0E0,0E0,0E0,0E0,0E0,0E0,0E0,0E0,0E0,0E0,0E0,0E0,0E0,0E0,0E0,0E0,0E0,0E0,0E0,0E0,0E0,0E0,0E0,0E0,0E0,0E0,0E0,0E0,0E0,0E0,0E0,0E0,0E0],"parents":[2147483647,0,0,1,1,2,2,3,3,4,4,5,5,6,6,7,7,8,8,9,9,10,10,11,11,12,12,13,13,14,14,15,15,16,16,17,17,18,18,19,19,20,20,21,21,22,22,23,23,24,24,25,25,26,26,27,27,28,28,29,29,30,30,31,31,32,32,33,33,34,34,35,35,36,36,37,37,38,38,39,39,40,40,41,41,42,42,43,43,44,44,45,45,46,46,47,47,48,48,49,49,50,50,51,51,52,52,53,53,54,54,55,55,56,56,57,57,58,58,59,59,60,60,61,61,62,62],"right_children":[2,4,6,8,10,12,14,16,18,20,22,24,26,28,30,32,34,36,38,40,42,44,46,48,50,52,54,56,58,60,62,64,66,68,70,72,74,76,78,80,82,84,86,88,90,92,94,96,98,100,102,104,106,108,110,112,114,116,118,120,122,124,126,-1,-1,-1,-1,-1,-1,-1,-1,-1,-1,-1,-1,-1,-1,-1,-1,-1,-1,-1,-1,-1,-1,-1,-1,-1,-1,-1,-1,-1,-1,-1,-1,-1,-1,-1,-1,-1,-1,-1,-1,-1,-1,-1,-1,-1,-1,-1,-1,-1,-1,-1,-1,-1,-1,-1,-1,-1,-1,-1,-1,-1,-1,-1,-1],"split_conditions":[3.8E1,4.2195077E0,4.5325994E0,5E0,2.48158E1,3.295837E0,7.7E1,2.11557E1,4E0,1E0,1E0,5.9E1,5.7E1,5.209486E0,5.8E1,1E0,2.7725887E0,2.44473E1,1E0,-3.35854E1,-3.35854E1,1E0,5.4026775E0,1E0,2.4849067E0,-1.74607E1,1E0,5E1,4.3E1,1E0,9.8E1,4E0,3.218876E0,2.89479E1,2.10229E1,2.8745E4,3.218876E0,3.4011974E0,4.7E1,-5.61446E1,1E0,3.8635E4,2E0,5.8289456E0,4.11578E1,5E0,2E0,3E0,2.5E0,5.1E1,3E0,4.0073333E0,4.6E1,1E0,3E0,2E0,3.75793E1,1E0,5.3E1,1E0,3E0,3.27516E1,4E0,-1.00590445E-1,-7.2593234E-2,-7.019206E-2,-4.6103846E-2,-3.889463E-2,-6.7864254E-2,-1.0771721E-2,-3.2396816E-2,-9.033235E-3,-3.8823E-2,-1.9410936E-2,8.623972E-3,-1.2864098E-2,2.1519406E-2,1.8199345E-2,5.267882E-2,-5.110544E-2,-9.303938E-3,-7.330826E-2,-4.9218543E-2,4.347773E-2,1.0941758E-2,-2.354549E-2,1.1605075E-2,-2.0965645E-2,1.7203404E-2,2.074355E-3,2.6683712E-2,1.2225531E-2,4.385312E-2,2.768899E-2,4.726605E-2,-3.8198505E-2,-7.0692236E-3,-7.857627E-3,4.5490332E-2,-1.2274901E-2,9.278131E-3,1.2389342E-2,3.8570818E-2,-1.3248645E-2,1.166667E-2,7.2312355E-3,3.1364825E-2,-1.7653711E-2,3.216436E-2,4.057732E-2,5.853739E-2,3.8430005E-2,5.7833184E-2,1.2107755E-2,3.1132935E-2,5.857141E-2,7.509398E-2,2.7980266E-2,5.2714087E-2,6.594127E-2,8.804437E-2,8.6042084E-2,1.0207281E-1,5.1400777E-2,7.621296E-2,2.5330914E-2,5.3835727E-2],"split_indices":[12,14,14,4,2,14,12,2,5,50,1,12,12,14,15,50,14,2,27,2,2,50,14,8,14,3,50,15,15,1,15,15,14,3,3,18,14,14,15,3,1,18,7,14,2,4,10,23,7,15,5,14,12,8,5,7,2,8,12,56,5,2,4,0,0,0,0,0,0,0,0,0,0,0,0,0,0,0,0,0,0,0,0,0,0,0,0,0,0,0,0,0,0,0,0,0,0,0,0,0,0,0,0,0,0,0,0,0,0,0,0,0,0,0,0,0,0,0,0,0,0,0,0,0,0,0,0],"split_type":[0,0,0,0,0,0,0,0,0,0,0,0,0,0,0,0,0,0,0,0,0,0,0,0,0,0,0,0,0,0,0,0,0,0,0,0,0,0,0,0,0,0,0,0,0,0,0,0,0,0,0,0,0,0,0,0,0,0,0,0,0,0,0,0,0,0,0,0,0,0,0,0,0,0,0,0,0,0,0,0,0,0,0,0,0,0,0,0,0,0,0,0,0,0,0,0,0,0,0,0,0,0,0,0,0,0,0,0,0,0,0,0,0,0,0,0,0,0,0,0,0,0,0,0,0,0,0],"sum_hessian":[2.4024E4,1.6873E4,7.151E3,8.042E3,8.831E3,3.318E3,3.833E3,6.255E3,1.787E3,4.213E3,4.618E3,1.173E3,2.145E3,2.217E3,1.616E3,3.37E3,2.885E3,1.45E3,3.37E2,8.9E2,3.323E3,1.8E3,2.818E3,4.4E2,7.33E2,7.36E2,1.409E3,8.51E2,1.366E3,1.363E3,2.53E2,1.161E3,2.209E3,9.09E2,1.976E3,7.15E2,7.35E2,1.58E2,1.79E2,1.75E2,7.15E2,5.62E2,2.761E3,5.22E2,1.278E3,1.575E3,1.243E3,3.12E2,1.28E2,3.23E2,4.1E2,2.61E2,4.75E2,6.1E1,1.348E3,5.99E2,2.52E2,1.149E3,2.17E2,4.03E2,9.6E2,1.27E2,1.26E2,5.3E2,6.31E2,9.72E2,1.237E3,4.79E2,4.3E2,8.98E2,1.078E3,1.95E2,5.2E2,3.48E2,3.87E2,9.1E1,6.7E1,1.13E2,6.6E1,2.4E1,1.51E2,3.05E2,4.1E2,2.76E2,2.86E2,1.969E3,7.92E2,4.47E2,7.5E1,8.26E2,4.52E2,1.239E3,3.36E2,3.97E2,8.46E2,2.43E2,6.9E1,1.15E2,1.3E1,1.93E2,1.3E2,2.57E2,1.53E2,1.2E2,1.41E2,1.98E2,2.77E2,4E1,2.1E1,9.13E2,4.35E2,4.26E2,1.73E2,1.14E2,1.38E2,4.62E2,6.87E2,1.2E2,9.7E1,2.94E2,1.09E2,7.01E2,2.59E2,5E1,7.7E1,4.3E1,8.3E1],"tree_param":{"num_deleted":"0","num_feature":"60","num_nodes":"127","size_leaf_vector":"1"}},{"base_weights":[-3.5623715E-3,-3.9758798E-1,7.9131377E-1,-8.423486E-1,-4.6420884E-3,1.7538825E-1,1.0712683E0,-1.0125347E0,-2.3137307E-1,-3.4229785E-1,3.156234E-1,-2.7983057E-1,4.0887645E-1,7.2530204E-1,1.3119019E0,-1.2903354E0,-6.5183574E-1,-3.6838242E-1,3.3591834E-1,-5.1302886E-1,2.5303477E-1,1.5754119E-2,5.0676155E-1,-5.76437E-1,4.5581013E-2,-1.3219611E-1,5.9602267E-1,4.9857897E-1,1.0465465E0,1.0947043E0,1.5415171E0,-1.6146039E0,-1.0780492E0,-9.7838056E-1,-4.6077737E-1,-6.0678303E-1,-4.9861778E-2,8.6711064E-2,8.4062725E-1,1.4990102E-1,-6.5096676E-1,8.0017954E-1,7.2656654E-2,-8.426307E-2,4.4879788E-1,3.9966875E-1,9.7117543E-1,-7.985882E-1,-3.2814336E-1,-2.8259793E-1,2.2076984E-1,-3.0435747E-1,1.2888233E-1,4.4809234E-1,9.0083796E-1,6.205911E-1,2.2604929E-1,1.1282212E0,4.7979823E-1,8.004534E-1,1.2524644E0,1.6528474E0,1.1864932E0,-9.098821E-2,-6.2167794E-2,-7.6062225E-2,-4.7219526E-2,-3.3971094E-2,-6.525923E-2,-3.206427E-2,-8.1513645E-3,-4.1626465E-2,-1.6315829E-2,-1.3173373E-2,1.2515366E-2,-7.947745E-3,2.2357697E-2,1.6178116E-2,6.1913926E-2,1.2035796E-2,-4.16465E-2,-2.4999911E-2,-5.6020893E-2,2.6180122E-2,5.6245495E-2,-2.3509741E-3,4.646231E-2,-9.3363095E-3,1.4855203E-2,1.2303832E-2,4.203498E-2,9.024864E-3,3.4522165E-2,6.358562E-2,3.2461952E-2,-4.1577864E-2,4.2896233E-2,-6.429543E-3,-3.274466E-2,-1.746728E-2,2.2924475E-2,-5.927681E-4,3.0194938E-2,-3.0349478E-2,-4.350974E-3,-1.1267613E-2,1.2437452E-2,1.7460091E-2,4.3674715E-2,5.044442E-2,1.5124388E-2,1.8447354E-2,3.7053645E-2,7.4212044E-3,4.9914494E-2,4.94851E-2,6.412224E-2,-1.4796535E-2,2.8932963E-2,2.4864098E-2,5.023207E-2,6.649623E-2,4.18048E-2,7.7027455E-2,9.338608E-2,4.406256E-2,6.724306E-2],"categories":[],"categories_nodes":[],"categories_segments":[],"categories_sizes":[],"default_left":[0,0,0,0,0,0,0,0,0,0,0,0,0,0,0,0,0,0,0,0,0,0,0,0,0,0,0,0,0,0,0,0,0,0,0,0,0,0,0,0,0,0,0,0,0,0,0,0,0,0,0,0,0,0,0,0,0,0,0,0,0,0,0,0,0,0,0,0,0,0,0,0,0,0,0,0,0,0,0,0,0,0,0,0,0,0,0,0,0,0,0,0,0,0,0,0,0,0,0,0,0,0,0,0,0,0,0,0,0,0,0,0,0,0,0,0,0,0,0,0,0,0,0,0,0,0,0],"id":2,"left_children":[1,3,5,7,9,11,13,15,17,19,21,23,25,27,29,31,33,35,37,39,41,43,45,47,49,51,53,55,57,59,61,63,65,67,69,71,73,75,77,79,81,83,85,87,89,91,93,95,97,99,101,103,105,107,109,111,113,115,117,119,121,123,125,-1,-1,-1,-1,-1,-1,-1,-1,-1,-1,-1,-1,-1,-1,-1,-1,-1,-1,-1,-1,-1,-1,-1,-1,-1,-1,-1,-1,-1,-1,-1,-1,-1,-1,-1,-1,-1,-1,-1,-1,-1,-1,-1,-1,-1,-1,-1,-1,-1,-1,-1,-1,-1,-1,-1,-1,-1,-1,-1,-1,-1,-1,-1,-1],"loss_changes":[7.4751836E3,2.7887502E3,1.3637422E3,7.780532E2,9.1637396E2,2.629652E2,4.5176855E2,5.857446E2,1.26969696E2,4.1940207E2,2.4926126E2,8.100585E1,1.6563837E2,1.6211548E2,1.5820166E2,2.2583691E2,1.5857898E2,9.982495E1,3.9924236E1,2.9326428E2,9.0739365E1,7.3408035E1,1.3170905E2,2.3952621E1,2.3117195E1,1.8962173E1,5.4382416E1,4.3453003E1,4.218329E1,7.563855E1,5.954004E1,9.720923E1,1.17096436E2,9.095209E1,8.642694E1,4.7340668E1,3.6228405E1,1.9020466E1,2.1188545E1,4.95589E1,1.8753516E2,1.9888351E1,7.108543E1,5.3863224E1,2.5057213E1,1.3753107E2,4.7260956E1,1.3329193E1,1.3543371E1,7.085394E0,2.335802E1,1.6653633E1,7.189493E0,3.4190933E1,2.5297028E1,2.7164856E1,2.4249578E1,1.5949219E1,9.220589E0,3.5342834E1,3.3494385E1,2.5644287E1,1.6942566E1,0E0,0E0,0E0,0E0,0E0,0E0,0E0,0E0,0E0,0E0,0E0,0E0,0E0,0E0,0E0,0E0,0E0,0E0,0E0,0E0,0E0,0E0,0E0,0E0,0E0,0E0,0E0,0E0,0E0,0E0,0E0,0E0,0E0,0E0,0E0,0E0,0E0,0E0,0E0,0E0,0E0,0E0,0E0,0E0,0E0,0E0,0E0,0E0,0E0,0E0,0E0,0E0,0E0,0E0,0E0,0E0,0E0,0E0,0E0,0E0,0E0,0E0,0E0,0E0],"parents":[2147483647,0,0,1,1,2,2,3,3,4,4,5,5,6,6,7,7,8,8,9,9,10,10,11,11,12,12,13,13,14,14,15,15,16,16,17,17,18,18,19,19,20,20,21,21,22,22,23,23,24,24,25,25,26,26,27,27,28,28,29,29,30,30,31,31,32,32,33,33,34,34,35,35,36,36,37,37,38,38,39,39,40,40,41,41,42,42,43,43,44,44,45,45,46,46,47,47,48,48,49,49,50,50,51,51,52,52,53,53,54,54,55,55,56,56,57,57,58,58,59,59,60,60,61,61,62,62],"right_children":[2,4,6,8,10,12,14,16,18,20,22,24,26,28,30,32,34,36,38,40,42,44,46,48,50,52,54,56,58,60,62,64,66,68,70,72,74,76,78,80,82,84,86,88,90,92,94,96,98,100,102,104,106,108,110,112,114,116,118,120,122,124,126,-1,-1,-1,-1,-1,-1,-1,-1,-1,-1,-1,-1,-1,-1,-1,-1,-1,-1,-1,-1,-1,-1,-1,-1,-1,-1,-1,-1,-1,-1,-1,-1,-1,-1,-1,-1,-1,-1,-1,-1,-1,-1,-1,-1,-1,-1,-1,-1,-1,-1,-1,-1,-1,-1,-1,-1,-1,-1,-1,-1,-1,-1,-1,-1],"split_conditions":[3.4E1,4.158883E0,4.0073333E0,5E0,2.48158E1,5.1E1,5.8E1,2.44473E1,4E0,2E0,1E0,3.295837E0,2.5649493E0,5.370638E0,5.198497E0,1E0,2.8903718E0,1E0,4.872857E0,-3.35854E1,-2.60535E1,5E0,5E0,2E0,-1.74607E1,5.3E1,3E0,5.3E1,5.3E1,7.7E1,2.2E1,3.2E1,1E0,2.89711E1,4.86E0,2.31394E1,3.465736E0,1.58857E1,1E0,1.45E2,1E0,4.872857E0,3.5E0,5.598422E0,4.11441E1,5.4026775E0,3E0,6.2E1,3E0,3E0,1.5E0,1.5E0,2E0,3.68362E1,1E0,4.4886365E0,5.22473E1,4.6E1,3E0,1E0,9.6E1,1.01E2,1E0,-9.098821E-2,-6.2167794E-2,-7.6062225E-2,-4.7219526E-2,-3.3971094E-2,-6.525923E-2,-3.206427E-2,-8.1513645E-3,-4.1626465E-2,-1.6315829E-2,-1.3173373E-2,1.2515366E-2,-7.947745E-3,2.2357697E-2,1.6178116E-2,6.1913926E-2,1.2035796E-2,-4.16465E-2,-2.4999911E-2,-5.6020893E-2,2.6180122E-2,5.6245495E-2,-2.3509741E-3,4.646231E-2,-9.3363095E-3,1.4855203E-2,1.2303832E-2,4.203498E-2,9.024864E-3,3.4522165E-2,6.358562E-2,3.2461952E-2,-4.1577864E-2,4.2896233E-2,-6.429543E-3,-3.274466E-2,-1.746728E-2,2.2924475E-2,-5.927681E-4,3.0194938E-2,-3.0349478E-2,-4.350974E-3,-1.1267613E-2,1.2437452E-2,1.7460091E-2,4.3674715E-2,5.044442E-2,1.5124388E-2,1.8447354E-2,3.7053645E-2,7.4212044E-3,4.9914494E-2,4.94851E-2,6.412224E-2,-1.4796535E-2,2.8932963E-2,2.4864098E-2,5.023207E-2,6.649623E-2,4.18048E-2,7.7027455E-2,9.338608E-2,4.406256E-2,6.724306E-2],"split_indices":[12,14,14,4,2,12,12,2,5,7,1,14,14,14,14,15,14,25,38,2,2,4,4,23,3,15,5,15,15,12,15,35,7,3,38,2,14,2,27,15,52,38,7,14,2,14,12,35,10,7,7,7,6,3,54,14,2,12,22,1,15,12,1,0,0,0,0,0,0,0,0,0,0,0,0,0,0,0,0,0,0,0,0,0,0,0,0,0,0,0,0,0,0,0,0,0,0,0,0,0,0,0,0,0,0,0,0,0,0,0,0,0,0,0,0,0,0,0,0,0,0,0,0,0,0,0,0],"split_type":[0,0,0,0,0,0,0,0,0,0,0,0,0,0,0,0,0,0,0,0,0,0,0,0,0,0,0,0,0,0,0,0,0,0,0,0,0,0,0,0,0,0,0,0,0,0,0,0,0,0,0,0,0,0,0,0,0,0,0,0,0,0,0,0,0,0,0,0,0,0,0,0,0,0,0,0,0,0,0,0,0,0,0,0,0,0,0,0,0,0,0,0,0,0,0,0,0,0,0,0,0,0,0,0,0,0,0,0,0,0,0,0,0,0,0,0,0,0,0,0,0,0,0,0,0,0,0],"sum_hessian":[2.3865E4,1.5956E4,7.909E3,7.484E3,8.472E3,2.472E3,5.437E3,5.853E3,1.631E3,4.124E3,4.348E3,8.38E2,1.634E3,2.232E3,3.205E3,3.305E3,2.548E3,1.314E3,3.17E2,3.205E3,9.19E2,1.693E3,2.655E3,4.38E2,4E2,4.2E2,1.214E3,1.31E3,9.22E2,1.65E3,1.555E3,1.305E3,2E3,9.39E2,1.609E3,7.51E2,5.63E2,2.13E2,1.04E2,5.52E2,2.653E3,2.27E2,6.92E2,1.376E3,3.17E2,2.159E3,4.96E2,2.3E2,2.08E2,1.39E2,2.61E2,2.53E2,1.67E2,8.19E2,3.95E2,9.04E2,4.06E2,8.05E2,1.17E2,5.78E2,1.072E3,1.181E3,3.74E2,8.38E2,4.67E2,4.61E2,1.539E3,4.92E2,4.47E2,1.001E3,6.08E2,4.15E2,3.36E2,3.29E2,2.34E2,1.27E2,8.6E1,4.6E1,5.8E1,5.06E2,4.6E1,2.009E3,6.44E2,1.24E2,1.03E2,6.08E2,8.4E1,1.085E3,2.91E2,2.1E2,1.07E2,1.232E3,9.27E2,2.55E2,2.41E2,2.26E2,4E0,1.3E2,7.8E1,1.28E2,1.1E1,1.63E2,9.8E1,1.05E2,1.48E2,4.2E1,1.25E2,6.66E2,1.53E2,3.34E2,6.1E1,2.94E2,6.1E2,3.7E2,3.6E1,4.28E2,3.77E2,1.3E1,1.04E2,2.34E2,3.44E2,9.02E2,1.7E2,7.81E2,4E2,1.3E2,2.44E2],"tree_param":{"num_deleted":"0","num_feature":"60","num_nodes":"127","size_leaf_vector":"1"}},{"base_weights":[-3.8329354E-3,-3.758246E-1,7.298396E-1,-7.9614985E-1,-5.5730017E-3,1.6873133E-1,9.9546164E-1,-9.5644796E-1,-2.2192453E-1,-3.351765E-1,3.0757827E-1,-2.0131887E-1,4.3593222E-1,6.682569E-1,1.2335844E0,-1.2279911E0,-5.988072E-1,-3.596229E-1,3.4428927E-1,-9.4413304E-1,-1.6468565E-1,1.4123622E-1,6.0701025E-1,-6.28858E-1,5.716871E-3,7.4029663E-3,6.504035E-1,4.415281E-1,1.0281289E0,1.0150882E0,1.4374009E0,-1.5483531E0,-1.0442773E0,-9.237472E-1,-4.0749288E-1,-5.22303E-1,5.488538E-2,5.89722E-1,-1.2516282E-1,-2.6694322E-1,-1.0994011E0,4.5981658E-1,-2.8489047E-1,2.0255243E-2,6.007204E-1,3.5988018E-1,7.8466415E-1,-7.536966E-1,-2.5977832E-1,1.3441205E-1,-3.8110316E-1,-2.235711E-1,1.5484113E-1,4.955955E-1,9.566916E-1,2.775515E-1,6.08861E-1,8.950237E-1,1.2065235E0,7.673995E-1,1.1435957E0,1.238289E0,1.5519638E0,-4.7656137E-2,-8.2652144E-2,-1.974821E-2,-5.601981E-2,-4.0788725E-2,-6.2511615E-2,-3.3388827E-2,-1.0102034E-2,-3.827587E-2,-1.4870896E-2,-6.617525E-3,2.5429878E-2,5.24858E-3,3.8323045E-2,-1.014797E-1,-2.6399696E-3,-3.4788445E-2,-9.1469113E-4,-6.059305E-2,-4.1633938E-2,4.2441487E-2,7.1197697E-3,-1.9762708E-2,1.5441239E-2,-7.4157403E-3,1.4813728E-2,1.8467663E-2,4.4810887E-2,1.2194295E-2,3.8951587E-2,3.5106145E-2,5.5614512E-2,-4.097113E-2,-4.628971E-3,-3.0032663E-2,1.0506147E-2,-7.856141E-3,1.4130339E-2,-3.0059187E-2,2.9052724E-3,-1.5912728E-2,1.3581348E-2,1.0052855E-2,-2.9917581E-2,1.2224129E-2,3.2620206E-2,3.8929846E-2,6.521696E-2,9.794592E-3,3.3291537E-2,1.6184228E-2,3.6368277E-2,4.7958847E-2,2.4106896E-2,5.777983E-2,8.0913E-2,3.062489E-2,4.8560645E-2,5.191471E-2,6.792151E-2,5.624925E-2,8.142621E-2,6.912553E-2,8.289483E-2],"categories":[],"categories_nodes":[],"categories_segments":[],"categories_sizes":[],"default_left":[0,0,0,0,0,0,0,0,0,0,0,0,0,0,0,0,0,0,0,0,0,0,0,0,0,0,0,0,0,0,0,0,0,0,0,0,0,0,0,0,0,0,0,0,0,0,0,0,0,0,0,0,0,0,0,0,0,0,0,0,0,0,0,0,0,0,0,0,0,0,0,0,0,0,0,0,0,0,0,0,0,0,0,0,0,0,0,0,0,0,0,0,0,0,0,0,0,0,0,0,0,0,0,0,0,0,0,0,0,0,0,0,0,0,0,0,0,0,0,0,0,0,0,0,0,0,0],"id":3,"left_children":[1,3,5,7,9,11,13,15,17,19,21,23,25,27,29,31,33,35,37,39,41,43,45,47,49,51,53,55,57,59,61,63,65,67,69,71,73,75,77,79,81,83,85,87,89,91,93,95,97,99,101,103,105,107,109,111,113,115,117,119,121,123,125,-1,-1,-1,-1,-1,-1,-1,-1,-1,-1,-1,-1,-1,-1,-1,-1,-1,-1,-1,-1,-1,-1,-1,-1,-1,-1,-1,-1,-1,-1,-1,-1,-1,-1,-1,-1,-1,-1,-1,-1,-1,-1,-1,-1,-1,-1,-1,-1,-1,-1,-1,-1,-1,-1,-1,-1,-1,-1,-1,-1,-1,-1,-1,-1],"loss_changes":[6.5260664E3,2.4693154E3,1.1988809E3,6.837905E2,8.709344E2,2.5578561E2,4.2459082E2,5.634048E2,1.26663765E2,4.2665472E2,2.1543399E2,9.604333E1,1.3803983E2,1.873739E2,1.3922119E2,1.9266357E2,1.5559729E2,8.8095184E1,3.6713417E1,9.423279E1,2.4132504E2,1.5469157E2,6.754877E1,1.6114899E1,3.6491554E1,1.7129925E1,4.6989136E1,3.8629333E1,2.0029663E1,4.7758545E1,3.5305664E1,7.326416E1,1.0339917E2,3.172876E1,8.44104E1,5.1076508E1,3.1414305E1,1.7825462E1,1.5052071E1,1.8007277E1,2.0917603E1,6.3965775E1,1.7671086E2,1.0259296E2,3.9322647E1,3.1315231E1,2.3503357E1,1.139563E1,1.4702368E1,2.3806564E1,1.7723948E1,9.276309E0,1.0806828E1,2.6104752E1,1.9725708E1,2.2571602E1,2.3387024E1,1.3125885E1,6.035034E0,1.5979919E1,2.1302368E1,2.4741333E1,1.623291E1,0E0,0E0,0E0,0E0,0E0,0E0,0E0,0E0,0E0,0E0,0E0,0E0,0E0,0E0,0E0,0E0,0E0,0E0,0E0,0E0,0E0,0E0,0E0,0E0,0E0,0E0,0E0,0E0,0E0,0E0,0E0,0E0,0E0,0E0,0E0,0E0,0E0,0E0,0E0,0E0,0E0,0E0,0E0,0E0,0E0,0E0,0E0,0E0,0E0,0E0,0E0,0E0,0E0,0E0,0E0,0E0,0E0,0E0,0E0,0E0,0E0,0E0,0E0,0E0],"parents":[2147483647,0,0,1,1,2,2,3,3,4,4,5,5,6,6,7,7,8,8,9,9,10,10,11,11,12,12,13,13,14,14,15,15,16,16,17,17,18,18,19,19,20,20,21,21,22,22,23,23,24,24,25,25,26,26,27,27,28,28,29,29,30,30,31,31,32,32,33,33,34,34,35,35,36,36,37,37,38,38,39,39,40,40,41,41,42,42,43,43,44,44,45,45,46,46,47,47,48,48,49,49,50,50,51,51,52,52,53,53,54,54,55,55,56,56,57,57,58,58,59,59,60,60,61,61,62,62],"right_children":[2,4,6,8,10,12,14,16,18,20,22,24,26,28,30,32,34,36,38,40,42,44,46,48,50,52,54,56,58,60,62,64,66,68,70,72,74,76,78,80,82,84,86,88,90,92,94,96,98,100,102,104,106,108,110,112,114,116,118,120,122,124,126,-1,-1,-1,-1,-1,-1,-1,-1,-1,-1,-1,-1,-1,-1,-1,-1,-1,-1,-1,-1,-1,-1,-1,-1,-1,-1,-1,-1,-1,-1,-1,-1,-1,-1,-1,-1,-1,-1,-1,-1,-1,-1,-1,-1,-1,-1,-1,-1,-1,-1,-1,-1,-1,-1,-1,-1,-1,-1,-1,-1,-1,-1,-1,-1],"split_conditions":[3.3E1,4.158883E0,4.0073333E0,5E0,2.48158E1,5.8E1,5.8E1,2.44473E1,4E0,1E0,5.4161005E0,2.8332133E0,2.8332133E0,5.4161005E0,5.1416636E0,1E0,2.8903718E0,4.8671427E0,1E0,-3.35854E1,-3.35854E1,5E0,4.832857E0,1E0,1E0,2.0794415E0,3E0,4.845714E0,4.6E1,7.6E1,3.46643E1,-3.34436E1,-3.35854E1,1E0,4.7985716E0,2.44473E1,1E0,4.7242856E0,3E0,1E0,5.209486E0,2.6223E4,1E0,4.865714E0,3E0,2.1E1,3E0,4E0,9.6228E4,2E0,1E0,1.5E2,1E0,3.4339871E0,1E0,3E0,3.3E1,1E0,3E0,4.8714285E0,3E0,1.26E2,2E0,-4.7656137E-2,-8.2652144E-2,-1.974821E-2,-5.601981E-2,-4.0788725E-2,-6.2511615E-2,-3.3388827E-2,-1.0102034E-2,-3.827587E-2,-1.4870896E-2,-6.617525E-3,2.5429878E-2,5.24858E-3,3.8323045E-2,-1.014797E-1,-2.6399696E-3,-3.4788445E-2,-9.1469113E-4,-6.059305E-2,-4.1633938E-2,4.2441487E-2,7.1197697E-3,-1.9762708E-2,1.5441239E-2,-7.4157403E-3,1.4813728E-2,1.8467663E-2,4.4810887E-2,1.2194295E-2,3.8951587E-2,3.5106145E-2,5.5614512E-2,-4.097113E-2,-4.628971E-3,-3.0032663E-2,1.0506147E-2,-7.856141E-3,1.4130339E-2,-3.0059187E-2,2.9052724E-3,-1.5912728E-2,1.3581348E-2,1.0052855E-2,-2.9917581E-2,1.2224129E-2,3.2620206E-2,3.8929846E-2,6.521696E-2,9.794592E-3,3.3291537E-2,1.6184228E-2,3.6368277E-2,4.7958847E-2,2.4106896E-2,5.777983E-2,8.0913E-2,3.062489E-2,4.8560645E-2,5.191471E-2,6.792151E-2,5.624925E-2,8.142621E-2,6.912553E-2,8.289483E-2],"split_indices":[12,14,14,4,2,12,12,2,5,50,14,14,14,14,14,50,14,38,12,2,2,4,38,8,57,14,5,38,12,12,2,2,2,54,38,2,8,38,12,55,14,18,30,38,5,12,6,5,18,6,30,12,52,14,8,5,35,57,5,38,5,12,5,0,0,0,0,0,0,0,0,0,0,0,0,0,0,0,0,0,0,0,0,0,0,0,0,0,0,0,0,0,0,0,0,0,0,0,0,0,0,0,0,0,0,0,0,0,0,0,0,0,0,0,0,0,0,0,0,0,0,0,0,0,0,0,0],"split_type":[0,0,0,0,0,0,0,0,0,0,0,0,0,0,0,0,0,0,0,0,0,0,0,0,0,0,0,0,0,0,0,0,0,0,0,0,0,0,0,0,0,0,0,0,0,0,0,0,0,0,0,0,0,0,0,0,0,0,0,0,0,0,0,0,0,0,0,0,0,0,0,0,0,0,0,0,0,0,0,0,0,0,0,0,0,0,0,0,0,0,0,0,0,0,0,0,0,0,0,0,0,0,0,0,0,0,0,0,0,0,0,0,0,0,0,0,0,0,0,0,0,0,0,0,0,0,0],"sum_hessian":[2.391E4,1.5866E4,8.044E3,7.43E3,8.436E3,2.585E3,5.459E3,5.808E3,1.622E3,4.11E3,4.326E3,1.084E3,1.501E3,2.301E3,3.158E3,3.3E3,2.508E3,1.305E3,3.17E2,8.98E2,3.212E3,2.782E3,1.544E3,3.53E2,7.31E2,5.01E2,1E3,1.413E3,8.88E2,1.527E3,1.631E3,1.2E3,2.1E3,9.28E2,1.58E3,9.37E2,3.68E2,2.08E2,1.09E2,1.68E2,7.3E2,5.18E2,2.694E3,2.203E3,5.79E2,6.47E2,8.97E2,2.63E2,9E1,5.49E2,1.82E2,1.95E2,3.06E2,6.66E2,3.34E2,7.15E2,6.98E2,5.12E2,3.76E2,5.24E2,1.003E3,6E2,1.031E3,1.81E2,1.019E3,2.21E2,1.879E3,7E2,2.28E2,6.96E2,8.84E2,4.49E2,4.88E2,2.61E2,1.07E2,5.6E1,1.52E2,3E0,1.06E2,6.1E1,1.07E2,5.11E2,2.19E2,2.32E2,2.86E2,2.272E3,4.22E2,1.368E3,8.35E2,3.26E2,2.53E2,5.08E2,1.39E2,7.19E2,1.78E2,2.39E2,2.4E1,5.2E1,3.8E1,1.85E2,3.64E2,1.21E2,6.1E1,1.64E2,3.1E1,2.89E2,1.7E1,2.57E2,4.09E2,2.23E2,1.11E2,5.92E2,1.23E2,2.06E2,4.92E2,4.42E2,7E1,3.38E2,3.8E1,3E2,2.24E2,6.77E2,3.26E2,4.68E2,1.32E2,4.02E2,6.29E2],"tree_param":{"num_deleted":"0","num_feature":"60","num_nodes":"127","size_leaf_vector":"1"}},{"base_weights":[2.4798354E-3,-3.843198E-1,6.507311E-1,-7.64593E-1,-1.9107394E-2,2.7672762E-1,1.0487384E0,-1.0288284E0,-4.3521884E-1,-3.2962298E-1,2.753875E-1,-4.8592433E-2,5.811195E-1,7.5090677E-1,1.2946199E0,-1.2205201E0,-4.9975115E-1,-5.569508E-1,9.472918E-2,-4.8494264E-1,2.4455352E-1,-1.3033873E-2,4.5733875E-1,-5.1370215E-1,1.8040766E-1,6.3094325E-2,7.5570244E-1,5.6260854E-1,1.0246044E0,9.999553E-1,1.4159038E0,-1.5015868E0,-1.0110191E0,6.4160764E-2,-6.6927296E-1,-7.9576933E-1,-3.434565E-1,-4.9914902E-1,2.3817791E-1,1.01878874E-1,-6.055445E-1,1.1639296E-1,1.1602961E0,-1.0305202E-1,4.0056622E-1,3.5753706E-1,8.66402E-1,-6.4078265E-1,-6.459946E-2,4.1189093E-2,4.2268482E-1,-2.1499035E-1,1.9956498E-1,6.360771E-1,1.0152152E0,6.5204173E-1,1.21666096E-1,1.1202677E0,6.491197E-1,1.1513281E0,6.7787874E-1,1.4835393E0,1.086869E0,-8.896296E-2,-6.453452E-2,-2.271573E-2,-5.545531E-2,-7.883929E-3,2.4207653E-2,-4.8196845E-2,-1.6232647E-2,-5.605929E-2,-3.0222759E-2,-2.0208707E-2,2.2988414E-2,-4.0230636E-2,-7.638714E-3,1.2222171E-3,3.0104766E-2,1.16418665E-2,-2.5201453E-2,-3.8185652E-2,-1.2298582E-2,3.8668495E-2,-3.4468216E-3,2.9969517E-2,7.3363446E-2,-1.2382395E-2,6.202091E-3,9.675397E-3,4.181292E-2,2.5382534E-2,3.2838215E-3,5.8187842E-2,2.3983823E-2,-5.241334E-2,-2.674128E-2,-3.8074534E-2,1.3581413E-3,-3.6381155E-3,2.0067738E-2,1.0031096E-2,3.3959985E-2,-1.473397E-2,1.297829E-2,2.5194245E-3,2.5622401E-2,3.376108E-2,-1.8215958E-3,4.5460504E-2,6.95711E-2,2.6086722E-2,4.343088E-2,9.739249E-5,3.0331427E-2,5.7860572E-2,3.5135984E-2,3.8183354E-2,1.5968084E-2,4.828393E-2,6.873169E-2,1.840724E-2,4.6461005E-2,6.64535E-2,8.125927E-2,3.8386676E-2,5.8532577E-2],"categories":[],"categories_nodes":[],"categories_segments":[],"categories_sizes":[],"default_left":[0,0,0,0,0,0,0,0,0,0,0,0,0,0,0,0,0,0,0,0,0,0,0,0,0,0,0,0,0,0,0,0,0,0,0,0,0,0,0,0,0,0,0,0,0,0,0,0,0,0,0,0,0,0,0,0,0,0,0,0,0,0,0,0,0,0,0,0,0,0,0,0,0,0,0,0,0,0,0,0,0,0,0,0,0,0,0,0,0,0,0,0,0,0,0,0,0,0,0,0,0,0,0,0,0,0,0,0,0,0,0,0,0,0,0,0,0,0,0,0,0,0,0,0,0,0,0],"id":4,"left_children":[1,3,5,7,9,11,13,15,17,19,21,23,25,27,29,31,33,35,37,39,41,43,45,47,49,51,53,55,57,59,61,63,65,67,69,71,73,75,77,79,81,83,85,87,89,91,93,95,97,99,101,103,105,107,109,111,113,115,117,119,121,123,125,-1,-1,-1,-1,-1,-1,-1,-1,-1,-1,-1,-1,-1,-1,-1,-1,-1,-1,-1,-1,-1,-1,-1,-1,-1,-1,-1,-1,-1,-1,-1,-1,-1,-1,-1,-1,-1,-1,-1,-1,-1,-1,-1,-1,-1,-1,-1,-1,-1,-1,-1,-1,-1,-1,-1,-1,-1,-1,-1,-1,-1,-1,-1,-1],"loss_changes":[5.983739E3,2.0756929E3,1.327209E3,6.3680273E2,6.9736084E2,4.5544315E2,3.1538672E2,4.1135693E2,2.1042511E2,3.3115805E2,2.0540732E2,2.369713E2,2.1483386E2,1.0022949E2,8.310449E1,1.7401465E2,1.0347711E2,1.349425E2,5.208544E1,2.0685681E2,9.269835E1,5.6447025E1,9.7670685E1,4.184958E1,5.0273247E1,2.2813143E1,5.451996E1,4.570459E1,2.7865173E1,3.3005737E1,3.561914E1,7.21333E1,9.292615E1,2.3462214E1,8.4174225E1,7.7205505E1,6.8561264E1,1.2467863E1,3.8253716E1,3.9712395E1,1.3767249E2,8.4674515E1,1.5822266E1,4.091257E1,2.4286083E1,8.4568115E1,5.348932E1,2.4135925E1,1.0444262E1,3.8936436E1,3.0851303E1,7.5642405E0,1.8784119E1,3.21149E1,2.1027771E1,2.6780457E1,1.1436413E1,8.951355E0,5.9508667E0,1.8157166E1,1.7096077E1,2.8144043E1,6.8285217E0,0E0,0E0,0E0,0E0,0E0,0E0,0E0,0E0,0E0,0E0,0E0,0E0,0E0,0E0,0E0,0E0,0E0,0E0,0E0,0E0,0E0,0E0,0E0,0E0,0E0,0E0,0E0,0E0,0E0,0E0,0E0,0E0,0E0,0E0,0E0,0E0,0E0,0E0,0E0,0E0,0E0,0E0,0E0,0E0,0E0,0E0,0E0,0E0,0E0,0E0,0E0,0E0,0E0,0E0,0E0,0E0,0E0,0E0,0E0,0E0,0E0,0E0,0E0,0E0],"parents":[2147483647,0,0,1,1,2,2,3,3,4,4,5,5,6,6,7,7,8,8,9,9,10,10,11,11,12,12,13,13,14,14,15,15,16,16,17,17,18,18,19,19,20,20,21,21,22,22,23,23,24,24,25,25,26,26,27,27,28,28,29,29,30,30,31,31,32,32,33,33,34,34,35,35,36,36,37,37,38,38,39,39,40,40,41,41,42,42,43,43,44,44,45,45,46,46,47,47,48,48,49,49,50,50,51,51,52,52,53,53,54,54,55,55,56,56,57,57,58,58,59,59,60,60,61,61,62,62],"right_children":[2,4,6,8,10,12,14,16,18,20,22,24,26,28,30,32,34,36,38,40,42,44,46,48,50,52,54,56,58,60,62,64,66,68,70,72,74,76,78,80,82,84,86,88,90,92,94,96,98,100,102,104,106,108,110,112,114,116,118,120,122,124,126,-1,-1,-1,-1,-1,-1,-1,-1,-1,-1,-1,-1,-1,-1,-1,-1,-1,-1,-1,-1,-1,-1,-1,-1,-1,-1,-1,-1,-1,-1,-1,-1,-1,-1,-1,-1,-1,-1,-1,-1,-1,-1,-1,-1,-1,-1,-1,-1,-1,-1,-1,-1,-1,-1,-1,-1,-1,-1,-1,-1,-1,-1,-1,-1],"split_conditions":[2.9E1,4.2195077E0,4.691348E0,2.44473E1,2.44473E1,5.8E1,5.7E1,2E0,2E0,2E0,1E0,3.295837E0,3.0445225E0,5.645447E0,1E0,3.0910425E0,-2.60996E1,3.218876E0,2.0794415E0,-3.35854E1,3.5E0,5E0,5E0,1E0,1.5E0,2.0794415E0,3E0,7.8E1,2.7E1,3E1,4.2E1,1E0,-3.29446E1,4E0,1E0,1E0,5.23572E1,2.6E1,1E0,8E1,5.332719E0,-2.61482E1,4.8242855E0,4.20165E1,4.11441E1,2.10229E1,3E0,1.9459101E0,9.705E3,4.54261E1,1E0,1E0,1.05E2,1E0,1E0,1E0,4.7E1,1E0,8.8E1,4.1048E1,3.77774E1,8.6E1,6.7E1,-8.896296E-2,-6.453452E-2,-2.271573E-2,-5.545531E-2,-7.883929E-3,2.4207653E-2,-4.8196845E-2,-1.6232647E-2,-5.605929E-2,-3.0222759E-2,-2.0208707E-2,2.2988414E-2,-4.0230636E-2,-7.638714E-3,1.2222171E-3,3.0104766E-2,1.16418665E-2,-2.5201453E-2,-3.8185652E-2,-1.2298582E-2,3.8668495E-2,-3.4468216E-3,2.9969517E-2,7.3363446E-2,-1.2382395E-2,6.202091E-3,9.675397E-3,4.181292E-2,2.5382534E-2,3.2838215E-3,5.8187842E-2,2.3983823E-2,-5.241334E-2,-2.674128E-2,-3.8074534E-2,1.3581413E-3,-3.6381155E-3,2.0067738E-2,1.0031096E-2,3.3959985E-2,-1.473397E-2,1.297829E-2,2.5194245E-3,2.5622401E-2,3.376108E-2,-1.8215958E-3,4.5460504E-2,6.95711E-2,2.6086722E-2,4.343088E-2,9.739249E-5,3.0331427E-2,5.7860572E-2,3.5135984E-2,3.8183354E-2,1.5968084E-2,4.828393E-2,6.873169E-2,1.840724E-2,4.6461005E-2,6.64535E-2,8.125927E-2,3.8386676E-2,5.8532577E-2],"split_indices":[12,14,14,2,2,12,12,7,7,7,1,14,14,14,1,14,2,14,14,2,7,4,4,8,7,14,5,15,15,15,15,15,2,5,27,15,2,0,27,15,14,2,38,2,2,3,12,14,18,2,1,9,12,52,56,8,35,57,15,2,2,12,12,0,0,0,0,0,0,0,0,0,0,0,0,0,0,0,0,0,0,0,0,0,0,0,0,0,0,0,0,0,0,0,0,0,0,0,0,0,0,0,0,0,0,0,0,0,0,0,0,0,0,0,0,0,0,0,0,0,0,0,0,0,0,0,0],"split_type":[0,0,0,0,0,0,0,0,0,0,0,0,0,0,0,0,0,0,0,0,0,0,0,0,0,0,0,0,0,0,0,0,0,0,0,0,0,0,0,0,0,0,0,0,0,0,0,0,0,0,0,0,0,0,0,0,0,0,0,0,0,0,0,0,0,0,0,0,0,0,0,0,0,0,0,0,0,0,0,0,0,0,0,0,0,0,0,0,0,0,0,0,0,0,0,0,0,0,0,0,0,0,0,0,0,0,0,0,0,0,0,0,0,0,0,0,0,0,0,0,0,0,0,0,0,0,0],"sum_hessian":[2.3862E4,1.4945E4,8.917E3,7.321E3,7.624E3,4.598E3,4.319E3,4.061E3,3.26E3,3.711E3,3.913E3,2.223E3,2.375E3,1.955E3,2.364E3,2.98E3,1.081E3,2.651E3,6.09E2,2.921E3,7.9E2,1.514E3,2.399E3,7.33E2,1.49E3,5.99E2,1.776E3,1.16E3,7.95E2,6.92E2,1.672E3,1.27E3,1.71E3,2.5E2,8.31E2,1.25E3,1.401E3,1.18E2,4.91E2,4.98E2,2.423E3,6.94E2,9.6E1,1.244E3,2.7E2,1.93E3,4.69E2,5.71E2,1.62E2,9.47E2,5.43E2,1.97E2,4.02E2,1.218E3,5.58E2,9.64E2,1.96E2,6.32E2,1.63E2,4.69E2,2.23E2,1.384E3,2.88E2,5.45E2,7.25E2,2.57E2,1.453E3,1.64E2,8.6E1,4.47E2,3.84E2,4.61E2,7.89E2,1.303E3,9.8E1,6.2E1,5.6E1,3.1E2,1.81E2,4.1E2,8.8E1,1.682E3,7.41E2,1.52E2,5.42E2,3.5E1,6.1E1,7.6E2,4.84E2,1.84E2,8.6E1,1.274E3,6.56E2,2.64E2,2.05E2,1.16E2,4.55E2,1.8E1,1.44E2,7.2E2,2.27E2,2.92E2,2.51E2,1.69E2,2.8E1,2.73E2,1.29E2,1.151E3,6.7E1,4.38E2,1.2E2,6.04E2,3.6E2,1.58E2,3.8E1,5.79E2,5.3E1,1.2E2,4.3E1,2.59E2,2.1E2,1.01E2,1.22E2,6.67E2,7.17E2,6.2E1,2.26E2],"tree_param":{"num_deleted":"0","num_feature":"60","num_nodes":"127","size_leaf_vector":"1"}},{"base_weights":[2.7998232E-3,-3.2559562E-1,6.718086E-1,-6.1493766E-1,-1.9305024E-2,3.736883E-1,9.208132E-1,-1.1733166E0,-4.276014E-1,-3.0505937E-1,2.7596217E-1,1.7055838E-1,7.0429903E-1,6.695114E-1,1.1885631E0,-5.99346E-1,-1.302166E0,1.8764357E-1,-5.27927E-1,-1.0199963E-1,-5.276644E-1,4.7044846E-1,1.4782474E-2,-3.418407E-2,4.5053974E-1,5.156218E-1,9.759495E-1,4.5583132E-1,9.1971695E-1,1.3289961E0,8.6913556E-1,-8.854025E-1,-2.8840223E-1,-1.505783E0,-1.0509417E0,5.9475887E-1,-1.1909438E-1,-7.0065653E-1,-1.716542E-1,6.144938E-2,-5.340592E-1,-8.114033E-1,-2.3944975E-1,6.327275E-1,-6.0615007E-2,-2.780773E-1,2.6348254E-1,-2.787691E-1,1.3156754E-1,5.334377E-1,4.8108514E-2,4.544816E-1,9.70998E-1,1.1296095E0,6.1978966E-1,5.871708E-1,1.9527511E-1,9.87997E-1,4.1671866E-1,1.1824356E0,1.4666426E0,1.0492548E0,6.0425305E-1,-4.9515024E-2,-1.8279303E-2,-5.872177E-3,-3.8695004E-2,-8.4805086E-2,-6.2571906E-2,-6.298921E-2,-4.6083253E-2,1.4595361E-2,4.027141E-2,-2.1138595E-2,1.079189E-2,-4.8385177E-2,-2.2794073E-2,-2.0588E-2,6.7050927E-3,-1.6463062E-2,1.454021E-2,-3.815033E-2,-1.1956711E-2,-3.7010804E-2,-9.0378694E-2,-3.879584E-2,-3.253152E-3,1.4662306E-2,4.1120794E-2,-4.4223342E-2,2.990802E-3,-3.0501485E-2,-1.1911612E-5,-1.4818288E-2,2.158533E-2,-2.227251E-2,5.7038707E-3,9.02634E-3,-4.2095568E-2,1.1345636E-3,3.0506456E-2,-1.7170832E-2,1.6749643E-2,2.4233932E-2,-2.839877E-2,7.138027E-2,3.4654606E-2,3.547589E-2,6.5462336E-2,2.2042273E-2,4.8969608E-2,5.5365007E-2,2.5294883E-2,-1.446225E-2,1.5883783E-2,5.599832E-2,3.9438598E-2,1.3563524E-2,3.2068007E-2,6.470922E-2,4.8433412E-2,2.9621264E-2,7.4628405E-2,4.0943414E-2,6.638389E-2,1.228186E-2,4.4696134E-2],"categories":[],"categories_nodes":[],"categories_segments":[],"categories_sizes":[],"default_left":[0,0,0,0,0,0,0,0,0,0,0,0,0,0,0,0,0,0,0,0,0,0,0,0,0,0,0,0,0,0,0,0,0,0,0,0,0,0,0,0,0,0,0,0,0,0,0,0,0,0,0,0,0,0,0,0,0,0,0,0,0,0,0,0,0,0,0,0,0,0,0,0,0,0,0,0,0,0,0,0,0,0,0,0,0,0,0,0,0,0,0,0,0,0,0,0,0,0,0,0,0,0,0,0,0,0,0,0,0,0,0,0,0,0,0,0,0,0,0,0,0,0,0,0,0,0,0],"id":5,"left_children":[1,3,5,7,9,11,13,15,17,19,21,23,25,27,29,31,33,35,37,39,41,43,45,47,49,51,53,55,57,59,61,63,65,67,69,71,73,75,77,79,81,83,85,87,89,91,93,95,97,99,101,103,105,107,109,111,113,115,117,119,121,123,125,-1,-1,-1,-1,-1,-1,-1,-1,-1,-1,-1,-1,-1,-1,-1,-1,-1,-1,-1,-1,-1,-1,-1,-1,-1,-1,-1,-1,-1,-1,-1,-1,-1,-1,-1,-1,-1,-1,-1,-1,-1,-1,-1,-1,-1,-1,-1,-1,-1,-1,-1,-1,-1,-1,-1,-1,-1,-1,-1,-1,-1,-1,-1,-1],"loss_changes":[5.2727856E3,1.4266372E3,5.862478E2,8.654153E2,6.5997235E2,2.4151053E2,2.888706E2,1.5297339E2,3.8279285E2,1.796246E2,1.9540475E2,1.2784806E2,6.966388E1,1.1843115E2,9.228467E1,3.381154E1,8.52251E1,1.0871443E2,3.2794336E2,1.4692181E2,1.548562E2,1.9006635E2,1.1973993E2,5.22932E1,3.1400162E1,2.2110535E1,2.9947327E1,4.0985138E1,3.4723022E1,2.7416504E1,2.9852997E1,1.0488983E1,1.5264123E1,4.3137695E1,1.9438782E1,2.3626663E1,5.0641808E1,2.3422449E2,1.2794205E2,1.354089E2,3.8372772E1,6.638544E1,8.80762E1,1.0852307E2,5.1348267E1,6.9632996E1,8.385393E1,3.416594E1,3.680316E1,3.057782E1,1.8311277E1,2.2381897E1,1.1065453E1,2.8502045E1,1.0571884E1,3.317331E1,2.405132E1,2.2778992E1,3.8775578E0,1.5587524E1,1.5910034E1,2.3223724E1,2.6893127E1,0E0,0E0,0E0,0E0,0E0,0E0,0E0,0E0,0E0,0E0,0E0,0E0,0E0,0E0,0E0,0E0,0E0,0E0,0E0,0E0,0E0,0E0,0E0,0E0,0E0,0E0,0E0,0E0,0E0,0E0,0E0,0E0,0E0,0E0,0E0,0E0,0E0,0E0,0E0,0E0,0E0,0E0,0E0,0E0,0E0,0E0,0E0,0E0,0E0,0E0,0E0,0E0,0E0,0E0,0E0,0E0,0E0,0E0,0E0,0E0,0E0,0E0,0E0,0E0],"parents":[2147483647,0,0,1,1,2,2,3,3,4,4,5,5,6,6,7,7,8,8,9,9,10,10,11,11,12,12,13,13,14,14,15,15,16,16,17,17,18,18,19,19,20,20,21,21,22,22,23,23,24,24,25,25,26,26,27,27,28,28,29,29,30,30,31,31,32,32,33,33,34,34,35,35,36,36,37,37,38,38,39,39,40,40,41,41,42,42,43,43,44,44,45,45,46,46,47,47,48,48,49,49,50,50,51,51,52,52,53,53,54,54,55,55,56,56,57,57,58,58,59,59,60,60,61,61,62,62],"right_children":[2,4,6,8,10,12,14,16,18,20,22,24,26,28,30,32,34,36,38,40,42,44,46,48,50,52,54,56,58,60,62,64,66,68,70,72,74,76,78,80,82,84,86,88,90,92,94,96,98,100,102,104,106,108,110,112,114,116,118,120,122,124,126,-1,-1,-1,-1,-1,-1,-1,-1,-1,-1,-1,-1,-1,-1,-1,-1,-1,-1,-1,-1,-1,-1,-1,-1,-1,-1,-1,-1,-1,-1,-1,-1,-1,-1,-1,-1,-1,-1,-1,-1,-1,-1,-1,-1,-1,-1,-1,-1,-1,-1,-1,-1,-1,-1,-1,-1,-1,-1,-1,-1,-1,-1,-1,-1],"split_conditions":[3.4E1,2.44473E1,1E0,1E0,1E0,7.6E1,6.6E1,-3.34436E1,-3.35854E1,2.26303E1,2.10229E1,3.80033E1,1E0,1E0,3.1E1,1E0,1E0,3.01E4,2E0,1E0,1E0,1E0,1E0,2E0,1.90552E1,5.25131E1,1.0245712E0,1E0,7.1E1,1E0,1.0043381E0,-3.39325E1,4E5,1E0,1E0,2E0,1E0,1E0,1E0,1E0,3E0,4.54261E1,1E0,1E0,8.821427E-4,3.25872E1,1E0,3E0,6E0,1E0,1E0,1E0,1.25319E1,2E0,4.865714E0,-3.39325E1,4.7957144E0,1.25319E1,4.8E1,1.2141219E0,4.697143E0,3E0,2.2734466E-3,-4.9515024E-2,-1.8279303E-2,-5.872177E-3,-3.8695004E-2,-8.4805086E-2,-6.2571906E-2,-6.298921E-2,-4.6083253E-2,1.4595361E-2,4.027141E-2,-2.1138595E-2,1.079189E-2,-4.8385177E-2,-2.2794073E-2,-2.0588E-2,6.7050927E-3,-1.6463062E-2,1.454021E-2,-3.815033E-2,-1.1956711E-2,-3.7010804E-2,-9.0378694E-2,-3.879584E-2,-3.253152E-3,1.4662306E-2,4.1120794E-2,-4.4223342E-2,2.990802E-3,-3.0501485E-2,-1.1911612E-5,-1.4818288E-2,2.158533E-2,-2.227251E-2,5.7038707E-3,9.02634E-3,-4.2095568E-2,1.1345636E-3,3.0506456E-2,-1.7170832E-2,1.6749643E-2,2.4233932E-2,-2.839877E-2,7.138027E-2,3.4654606E-2,3.547589E-2,6.5462336E-2,2.2042273E-2,4.8969608E-2,5.5365007E-2,2.5294883E-2,-1.446225E-2,1.5883783E-2,5.599832E-2,3.9438598E-2,1.3563524E-2,3.2068007E-2,6.470922E-2,4.8433412E-2,2.9621264E-2,7.4628405E-2,4.0943414E-2,6.638389E-2,1.228186E-2,4.4696134E-2],"split_indices":[12,2,1,50,1,12,12,2,2,3,3,2,8,8,15,1,1,18,7,54,8,54,8,23,3,2,17,57,15,25,17,2,18,7,34,23,1,1,1,50,19,2,50,7,37,3,50,5,13,50,8,52,3,5,38,2,38,3,12,17,38,6,37,0,0,0,0,0,0,0,0,0,0,0,0,0,0,0,0,0,0,0,0,0,0,0,0,0,0,0,0,0,0,0,0,0,0,0,0,0,0,0,0,0,0,0,0,0,0,0,0,0,0,0,0,0,0,0,0,0,0,0,0,0,0,0,0],"split_type":[0,0,0,0,0,0,0,0,0,0,0,0,0,0,0,0,0,0,0,0,0,0,0,0,0,0,0,0,0,0,0,0,0,0,0,0,0,0,0,0,0,0,0,0,0,0,0,0,0,0,0,0,0,0,0,0,0,0,0,0,0,0,0,0,0,0,0,0,0,0,0,0,0,0,0,0,0,0,0,0,0,0,0,0,0,0,0,0,0,0,0,0,0,0,0,0,0,0,0,0,0,0,0,0,0,0,0,0,0,0,0,0,0,0,0,0,0,0,0,0,0,0,0,0,0,0,0],"sum_hessian":[2.3998E4,1.6097E4,7.901E3,8.277E3,7.82E3,3.597E3,4.304E3,2.078E3,6.199E3,3.974E3,3.846E3,2.229E3,1.368E3,2.222E3,2.082E3,3.82E2,1.696E3,8.69E2,5.33E3,2.079E3,1.895E3,2.204E3,1.642E3,1.288E3,9.41E2,8.09E2,5.59E2,1.2E3,1.022E3,1.444E3,6.38E2,1.98E2,1.84E2,9.34E2,7.62E2,3.73E2,4.96E2,3.589E3,1.741E3,1.509E3,5.7E2,9.54E2,9.41E2,1.688E3,5.16E2,7.54E2,8.88E2,5.2E2,7.68E2,7.8E2,1.61E2,7.15E2,9.4E1,3.89E2,1.7E2,7.97E2,4.03E2,8.99E2,1.23E2,7.04E2,7.4E2,3.78E2,2.6E2,1.64E2,3.4E1,1.37E2,4.7E1,5.31E2,4.03E2,2.88E2,4.74E2,1.54E2,2.19E2,2.6E2,2.36E2,1.715E3,1.874E3,9.75E2,7.66E2,5.58E2,9.51E2,3.2E2,2.5E2,8.92E2,6.2E1,2.3E2,7.11E2,6.06E2,1.082E3,6.5E1,4.51E2,3.43E2,4.11E2,2.05E2,6.83E2,3.65E2,1.55E2,7.32E2,3.6E1,1.02E2,6.78E2,6.8E1,9.3E1,6.95E2,2E1,3.4E1,6E1,1.18E2,2.71E2,1.15E2,5.5E1,1.06E2,6.91E2,8.1E1,3.22E2,5.38E2,3.61E2,7.6E1,4.7E1,4.59E2,2.45E2,2.2E1,7.18E2,2.09E2,1.69E2,1.17E2,1.43E2],"tree_param":{"num_deleted":"0","num_feature":"60","num_nodes":"127","size_leaf_vector":"1"}},{"base_weights":[-1.9224569E-3,-3.5413808E-1,5.923794E-1,-7.818703E-1,-8.259615E-2,2.1610823E-1,9.255218E-1,-9.316928E-1,-2.4091123E-1,-3.6552304E-1,1.9464226E-1,-7.926112E-2,4.80777E-1,6.580422E-1,1.1581703E0,-1.1772444E0,-6.2786263E-1,-3.155507E-2,-6.1805505E-1,-8.742367E-1,-2.1372463E-1,-5.122751E-2,3.729239E-1,-4.4193462E-1,1.2417555E-1,1.3466175E-1,7.15216E-1,4.9254248E-1,9.5003146E-1,1.2508605E0,7.998471E-1,-1.4706088E0,-9.7681886E-1,-9.7472304E-1,-4.3150163E-1,-3.6723238E-1,2.1205667E-1,-4.9826613E-1,-1.148107E0,-3.8949516E-1,-9.866118E-1,-3.1939155E-1,4.1690043E-1,-3.7773496E-1,8.9774765E-2,3.1480604E-1,9.830571E-1,-5.7872546E-1,3.0294065E-3,3.9358225E-2,4.5310107E-1,-6.443444E-3,3.86719E-1,5.7357144E-1,9.248366E-1,5.863453E-1,1.8775405E-1,1.0455749E0,5.678912E-1,1.0324086E0,1.337178E0,5.546142E-1,9.818981E-1,-8.168986E-2,-5.7838984E-2,-6.5992914E-2,-4.343238E-2,-6.1404448E-2,-3.8550496E-2,-2.8902367E-2,-3.9292774E-3,-2.264539E-2,1.6391737E-2,-2.3010345E-4,3.1593088E-2,-4.996346E-2,-1.854509E-2,-7.723061E-2,-4.3840382E-2,-3.034828E-2,-5.661553E-3,-5.9433546E-2,-4.1512787E-2,-2.8498167E-2,-2.0188831E-3,4.363251E-2,9.993167E-3,-2.56301E-2,5.3893547E-3,6.819732E-4,3.3324283E-2,6.5246047E-3,2.6540805E-2,-2.1756088E-2,5.2780706E-2,-3.0784523E-2,2.0657448E-2,-2.5811374E-2,7.7394443E-3,-3.9462773E-3,1.7007655E-2,-4.515286E-3,2.7081395E-2,-4.6374914E-3,2.9061878E-2,1.9794049E-4,2.7125767E-2,-1.7634107E-2,3.1067709E-2,4.1110504E-2,6.1516937E-2,2.3332495E-2,3.8850587E-2,5.4139686E-3,3.578416E-2,5.396981E-2,3.065019E-2,3.202283E-2,-4.009293E-3,4.8182525E-2,7.29169E-2,6.4784765E-2,9.201783E-2,1.8125383E-2,3.8947564E-2,3.4426183E-2,5.382941E-2],"categories":[],"categories_nodes":[],"categories_segments":[],"categories_sizes":[],"default_left":[0,0,0,0,0,0,0,0,0,0,0,0,0,0,0,0,0,0,0,0,0,0,0,0,0,0,0,0,0,0,0,0,0,0,0,0,0,0,0,0,0,0,0,0,0,0,0,0,0,0,0,0,0,0,0,0,0,0,0,0,0,0,0,0,0,0,0,0,0,0,0,0,0,0,0,0,0,0,0,0,0,0,0,0,0,0,0,0,0,0,0,0,0,0,0,0,0,0,0,0,0,0,0,0,0,0,0,0,0,0,0,0,0,0,0,0,0,0,0,0,0,0,0,0,0,0,0],"id":6,"left_children":[1,3,5,7,9,11,13,15,17,19,21,23,25,27,29,31,33,35,37,39,41,43,45,47,49,51,53,55,57,59,61,63,65,67,69,71,73,75,77,79,81,83,85,87,89,91,93,95,97,99,101,103,105,107,109,111,113,115,117,119,121,123,125,-1,-1,-1,-1,-1,-1,-1,-1,-1,-1,-1,-1,-1,-1,-1,-1,-1,-1,-1,-1,-1,-1,-1,-1,-1,-1,-1,-1,-1,-1,-1,-1,-1,-1,-1,-1,-1,-1,-1,-1,-1,-1,-1,-1,-1,-1,-1,-1,-1,-1,-1,-1,-1,-1,-1,-1,-1,-1,-1,-1,-1,-1,-1,-1],"loss_changes":[4.9743374E3,1.7329684E3,1.1082866E3,4.693667E2,7.1605505E2,3.2477722E2,2.9109106E2,3.3774805E2,9.9308876E1,3.4870178E2,2.0213799E2,1.4496094E2,1.7768777E2,1.0507202E2,8.2264404E1,1.4602808E2,1.378424E2,6.6315575E1,2.7936905E1,5.615857E1,2.320938E2,8.930216E1,9.447415E1,4.2973846E1,3.510648E1,3.1514488E1,3.8246765E1,3.9801575E1,2.8213379E1,3.6143555E1,2.2581512E1,5.0142822E1,5.4254272E1,3.688617E1,6.7084946E1,2.0455074E1,4.2751495E1,2.3111427E1,7.4665375E0,1.176689E1,2.5614563E1,2.0845755E2,4.9282898E1,3.836158E1,5.9486332E1,9.7155685E1,2.4331833E1,2.0053284E1,1.3239866E1,3.5677155E1,1.2460281E1,2.8913942E1,1.8961033E1,3.482959E1,1.5448547E1,2.3988403E1,1.3768314E1,8.555237E0,7.5758286E0,1.5229187E1,2.7317871E1,9.328171E0,7.4815063E0,0E0,0E0,0E0,0E0,0E0,0E0,0E0,0E0,0E0,0E0,0E0,0E0,0E0,0E0,0E0,0E0,0E0,0E0,0E0,0E0,0E0,0E0,0E0,0E0,0E0,0E0,0E0,0E0,0E0,0E0,0E0,0E0,0E0,0E0,0E0,0E0,0E0,0E0,0E0,0E0,0E0,0E0,0E0,0E0,0E0,0E0,0E0,0E0,0E0,0E0,0E0,0E0,0E0,0E0,0E0,0E0,0E0,0E0,0E0,0E0,0E0,0E0,0E0,0E0],"parents":[2147483647,0,0,1,1,2,2,3,3,4,4,5,5,6,6,7,7,8,8,9,9,10,10,11,11,12,12,13,13,14,14,15,15,16,16,17,17,18,18,19,19,20,20,21,21,22,22,23,23,24,24,25,25,26,26,27,27,28,28,29,29,30,30,31,31,32,32,33,33,34,34,35,35,36,36,37,37,38,38,39,39,40,40,41,41,42,42,43,43,44,44,45,45,46,46,47,47,48,48,49,49,50,50,51,51,52,52,53,53,54,54,55,55,56,56,57,57,58,58,59,59,60,60,61,61,62,62],"right_children":[2,4,6,8,10,12,14,16,18,20,22,24,26,28,30,32,34,36,38,40,42,44,46,48,50,52,54,56,58,60,62,64,66,68,70,72,74,76,78,80,82,84,86,88,90,92,94,96,98,100,102,104,106,108,110,112,114,116,118,120,122,124,126,-1,-1,-1,-1,-1,-1,-1,-1,-1,-1,-1,-1,-1,-1,-1,-1,-1,-1,-1,-1,-1,-1,-1,-1,-1,-1,-1,-1,-1,-1,-1,-1,-1,-1,-1,-1,-1,-1,-1,-1,-1,-1,-1,-1,-1,-1,-1,-1,-1,-1,-1,-1,-1,-1,-1,-1,-1,-1,-1,-1,-1,-1,-1,-1],"split_conditions":[2.9E1,3.8501475E0,4.5325994E0,5E0,2.44473E1,5.7E1,5.8E1,2.10614E1,2E0,1E0,1E0,3.295837E0,3.3672957E0,5.645447E0,4.2E1,2E0,1E0,3E0,1E0,-3.34436E1,3E0,1E0,3E0,1E0,3E0,3E0,1E0,5.5E1,2.7E1,1E0,1E0,1E0,2E0,2.7725887E0,1E0,5.4265815E-3,4.872857E0,1.183786E-3,1.6E1,5.081404E0,1E0,4.919981E0,-2.60535E1,5.598422E0,3E0,5.198497E0,1E0,5.23841E1,2.0794415E0,1E0,4.6685715E0,1E0,2.3025851E0,1E0,3E0,1E0,5.210346E-3,1E0,1.39E2,1E0,1.51E2,4.11578E1,2E0,-8.168986E-2,-5.7838984E-2,-6.5992914E-2,-4.343238E-2,-6.1404448E-2,-3.8550496E-2,-2.8902367E-2,-3.9292774E-3,-2.264539E-2,1.6391737E-2,-2.3010345E-4,3.1593088E-2,-4.996346E-2,-1.854509E-2,-7.723061E-2,-4.3840382E-2,-3.034828E-2,-5.661553E-3,-5.9433546E-2,-4.1512787E-2,-2.8498167E-2,-2.0188831E-3,4.363251E-2,9.993167E-3,-2.56301E-2,5.3893547E-3,6.819732E-4,3.3324283E-2,6.5246047E-3,2.6540805E-2,-2.1756088E-2,5.2780706E-2,-3.0784523E-2,2.0657448E-2,-2.5811374E-2,7.7394443E-3,-3.9462773E-3,1.7007655E-2,-4.515286E-3,2.7081395E-2,-4.6374914E-3,2.9061878E-2,1.9794049E-4,2.7125767E-2,-1.7634107E-2,3.1067709E-2,4.1110504E-2,6.1516937E-2,2.3332495E-2,3.8850587E-2,5.4139686E-3,3.578416E-2,5.396981E-2,3.065019E-2,3.202283E-2,-4.009293E-3,4.8182525E-2,7.29169E-2,6.4784765E-2,9.201783E-2,1.8125383E-2,3.8947564E-2,3.4426183E-2,5.382941E-2],"split_indices":[12,14,14,4,2,12,12,2,12,50,1,14,14,14,15,15,15,5,57,2,5,50,5,8,5,5,8,15,15,1,1,1,21,14,56,37,38,37,12,14,1,14,2,14,5,14,50,2,14,8,38,9,14,50,5,25,37,57,15,9,12,2,6,0,0,0,0,0,0,0,0,0,0,0,0,0,0,0,0,0,0,0,0,0,0,0,0,0,0,0,0,0,0,0,0,0,0,0,0,0,0,0,0,0,0,0,0,0,0,0,0,0,0,0,0,0,0,0,0,0,0,0,0,0,0,0,0],"split_type":[0,0,0,0,0,0,0,0,0,0,0,0,0,0,0,0,0,0,0,0,0,0,0,0,0,0,0,0,0,0,0,0,0,0,0,0,0,0,0,0,0,0,0,0,0,0,0,0,0,0,0,0,0,0,0,0,0,0,0,0,0,0,0,0,0,0,0,0,0,0,0,0,0,0,0,0,0,0,0,0,0,0,0,0,0,0,0,0,0,0,0,0,0,0,0,0,0,0,0,0,0,0,0,0,0,0,0,0,0,0,0,0,0,0,0,0,0,0,0,0,0,0,0,0,0,0,0],"sum_hessian":[2.3762E4,1.492E4,8.842E3,5.793E3,9.127E3,4.153E3,4.689E3,4.536E3,1.257E3,4.517E3,4.61E3,1.963E3,2.19E3,2.183E3,2.506E3,2.507E3,2.029E3,8.09E2,4.48E2,1.037E3,3.48E3,1.938E3,2.672E3,7.05E2,1.258E3,8.85E2,1.305E3,1.395E3,7.88E2,1.989E3,5.17E2,1.015E3,1.492E3,7.32E2,1.297E3,3.4E2,4.69E2,3.67E2,8.1E1,1.96E2,8.41E2,2.981E3,4.99E2,5.84E2,1.354E3,2.441E3,2.31E2,5.39E2,1.66E2,1.001E3,2.57E2,5.68E2,3.17E2,7.81E2,5.24E2,1.066E3,3.29E2,6.29E2,1.59E2,5.67E2,1.422E3,2.22E2,2.95E2,6.65E2,3.5E2,3.55E2,1.137E3,3.24E2,4.08E2,9.16E2,3.81E2,3.03E2,3.7E1,3.1E2,1.59E2,7.3E1,2.94E2,3.1E1,5E1,1.09E2,8.7E1,3.64E2,4.77E2,1.57E3,1.411E3,1.6E2,3.39E2,4.57E2,1.27E2,1.197E3,1.57E2,1.318E3,1.123E3,1.1E1,2.2E2,5.2E2,1.9E1,3.7E1,1.29E2,7.19E2,2.82E2,3.6E1,2.21E2,4.96E2,7.2E1,9.2E1,2.25E2,3.8E1,7.43E2,3.95E2,1.29E2,6.57E2,4.09E2,2.87E2,4.2E1,5.82E2,4.7E1,1.43E2,1.6E1,4.91E2,7.6E1,1.317E3,1.05E2,1.21E2,1.01E2,7.4E1,2.21E2],"tree_param":{"num_deleted":"0","num_feature":"60","num_nodes":"127","size_leaf_vector":"1"}},{"base_weights":[-1.3464151E-3,-3.1609622E-1,5.915581E-1,-7.3545665E-1,-5.032018E-2,9.094555E-2,8.2533866E-1,-8.7576497E-1,-2.3342016E-1,-3.027094E-1,2.0271522E-1,-1.9231658E-1,3.522407E-1,5.391574E-1,1.0312352E0,-1.1099831E0,-5.973545E-1,-3.9786276E-1,8.936536E-2,-4.5140463E-1,2.1849965E-1,3.8960227E-3,4.2569906E-1,-5.423223E-1,-2.0793421E-2,7.040701E-2,5.4617494E-1,3.490612E-1,8.537386E-1,8.6415166E-1,1.2136743E0,-1.4685378E0,-9.887662E-1,-8.384454E-1,-4.298033E-1,-6.281906E-1,-1.7540456E-1,-1.24799736E-1,4.5264965E-1,-5.977904E-1,-4.6460662E-2,1.09184496E-1,9.80419E-1,-1.7935656E-1,3.142074E-1,2.5322387E-1,6.2689763E-1,-6.8360484E-1,-1.6658609E-1,-3.3532208E-1,1.17613085E-1,-2.9595125E-2,4.222661E-1,4.050418E-1,8.2487667E-1,2.280826E-1,5.842714E-1,7.299599E-1,1.0335969E0,7.0871556E-1,1.0530993E0,1.1139708E0,1.4183365E0,-4.7577053E-2,-8.061558E-2,-6.272699E-2,-4.179656E-2,-2.9339341E-2,-5.5168536E-2,-2.8362399E-2,-9.054936E-3,-3.3423703E-2,6.652274E-2,-1.3736024E-2,1.863276E-2,-8.257495E-3,5.587526E-2,-3.5909393E-3,3.1262495E-2,-1.2522108E-2,-3.669371E-2,-2.2668941E-2,4.271388E-3,3.0311152E-2,-1.5754016E-3,3.9101996E-2,8.482053E-2,1.4078533E-4,-1.9316483E-2,9.478136E-3,4.5877464E-2,2.7772617E-3,2.4261398E-2,2.3514954E-2,3.925093E-2,-3.9687663E-2,-6.9390247E-3,-1.5500421E-2,1.347126E-2,-2.284832E-2,3.2469753E-2,-2.1718906E-3,1.5863057E-2,-4.6473322E-3,2.922774E-2,9.700886E-3,3.621861E-2,1.2248228E-2,3.394592E-2,3.2588255E-2,5.2263927E-2,4.592242E-3,2.297728E-2,2.610653E-2,5.7278205E-2,3.4032978E-2,6.0000878E-2,4.724206E-2,5.7934195E-2,2.5066555E-2,4.2818334E-2,4.065009E-2,5.944258E-2,4.4370957E-2,5.9903353E-2,7.902766E-2,6.4316325E-2],"categories":[],"categories_nodes":[],"categories_segments":[],"categories_sizes":[],"default_left":[0,0,0,0,0,0,0,0,0,0,0,0,0,0,0,0,0,0,0,0,0,0,0,0,0,0,0,0,0,0,0,0,0,0,0,0,0,0,0,0,0,0,0,0,0,0,0,0,0,0,0,0,0,0,0,0,0,0,0,0,0,0,0,0,0,0,0,0,0,0,0,0,0,0,0,0,0,0,0,0,0,0,0,0,0,0,0,0,0,0,0,0,0,0,0,0,0,0,0,0,0,0,0,0,0,0,0,0,0,0,0,0,0,0,0,0,0,0,0,0,0,0,0,0,0,0,0],"id":7,"left_children":[1,3,5,7,9,11,13,15,17,19,21,23,25,27,29,31,33,35,37,39,41,43,45,47,49,51,53,55,57,59,61,63,65,67,69,71,73,75,77,79,81,83,85,87,89,91,93,95,97,99,101,103,105,107,109,111,113,115,117,119,121,123,125,-1,-1,-1,-1,-1,-1,-1,-1,-1,-1,-1,-1,-1,-1,-1,-1,-1,-1,-1,-1,-1,-1,-1,-1,-1,-1,-1,-1,-1,-1,-1,-1,-1,-1,-1,-1,-1,-1,-1,-1,-1,-1,-1,-1,-1,-1,-1,-1,-1,-1,-1,-1,-1,-1,-1,-1,-1,-1,-1,-1,-1,-1,-1,-1],"loss_changes":[4.452672E3,1.7371156E3,9.6826E2,4.256753E2,6.093822E2,1.9509732E2,3.3177417E2,3.0744824E2,7.02069E1,3.7032227E2,2.112473E2,7.593183E1,7.4896576E1,1.4095123E2,9.890332E1,1.1003027E2,8.693347E1,4.4774582E1,3.483435E1,2.2030872E2,8.826294E1,1.4335706E2,7.77814E1,2.1969475E1,3.704233E1,1.9717028E1,3.1605148E1,4.1809967E1,1.9036987E1,4.962195E1,3.0354736E1,4.64834E1,7.6940674E1,5.835608E1,4.3549118E1,3.4816803E1,2.4433052E1,1.4320427E1,1.5071781E1,1.2885925E2,5.3062508E1,6.498371E1,1.756437E1,5.9763123E1,7.021641E1,5.551223E1,2.5283691E1,1.8013336E1,7.274905E0,3.1440903E1,1.9016497E1,1.7056835E1,8.409906E0,2.3551895E1,9.696655E0,3.0703438E1,1.6841461E1,1.1465424E1,2.902008E0,2.847647E1,2.4195923E1,1.907483E1,8.86676E0,0E0,0E0,0E0,0E0,0E0,0E0,0E0,0E0,0E0,0E0,0E0,0E0,0E0,0E0,0E0,0E0,0E0,0E0,0E0,0E0,0E0,0E0,0E0,0E0,0E0,0E0,0E0,0E0,0E0,0E0,0E0,0E0,0E0,0E0,0E0,0E0,0E0,0E0,0E0,0E0,0E0,0E0,0E0,0E0,0E0,0E0,0E0,0E0,0E0,0E0,0E0,0E0,0E0,0E0,0E0,0E0,0E0,0E0,0E0,0E0,0E0,0E0,0E0,0E0],"parents":[2147483647,0,0,1,1,2,2,3,3,4,4,5,5,6,6,7,7,8,8,9,9,10,10,11,11,12,12,13,13,14,14,15,15,16,16,17,17,18,18,19,19,20,20,21,21,22,22,23,23,24,24,25,25,26,26,27,27,28,28,29,29,30,30,31,31,32,32,33,33,34,34,35,35,36,36,37,37,38,38,39,39,40,40,41,41,42,42,43,43,44,44,45,45,46,46,47,47,48,48,49,49,50,50,51,51,52,52,53,53,54,54,55,55,56,56,57,57,58,58,59,59,60,60,61,61,62,62],"right_children":[2,4,6,8,10,12,14,16,18,20,22,24,26,28,30,32,34,36,38,40,42,44,46,48,50,52,54,56,58,60,62,64,66,68,70,72,74,76,78,80,82,84,86,88,90,92,94,96,98,100,102,104,106,108,110,112,114,116,118,120,122,124,126,-1,-1,-1,-1,-1,-1,-1,-1,-1,-1,-1,-1,-1,-1,-1,-1,-1,-1,-1,-1,-1,-1,-1,-1,-1,-1,-1,-1,-1,-1,-1,-1,-1,-1,-1,-1,-1,-1,-1,-1,-1,-1,-1,-1,-1,-1,-1,-1,-1,-1,-1,-1,-1,-1,-1,-1,-1,-1,-1,-1,-1,-1,-1,-1],"split_conditions":[3.1E1,3.8501475E0,4.0073333E0,5E0,2.48158E1,5.9E1,5.7E1,2.10614E1,3E0,2E0,5.049856E0,2.8332133E0,3.0445225E0,5.4161005E0,5.209486E0,1E0,2.7725887E0,2.11557E1,4.8671427E0,5.332719E0,3.5E0,1E0,4.857143E0,1E0,-1.74607E1,1.26E2,3E0,4.884286E0,4.6E1,1.5E0,1.5E0,3.2757E4,2.7080503E0,2.89479E1,4.8685713E0,1E1,4.9085712E0,1.152483E2,3E0,-2.29649E1,1E0,-2.61482E1,1E0,2.37291E1,3E0,4.11578E1,1E0,2.5E0,4.9085712E0,1E0,4.6E1,1E0,2.6E1,1E0,4.8628573E0,1.5E0,2.5E0,3E0,1E0,7.7E1,4.817143E0,1E0,7.610602E-1,-4.7577053E-2,-8.061558E-2,-6.272699E-2,-4.179656E-2,-2.9339341E-2,-5.5168536E-2,-2.8362399E-2,-9.054936E-3,-3.3423703E-2,6.652274E-2,-1.3736024E-2,1.863276E-2,-8.257495E-3,5.587526E-2,-3.5909393E-3,3.1262495E-2,-1.2522108E-2,-3.669371E-2,-2.2668941E-2,4.271388E-3,3.0311152E-2,-1.5754016E-3,3.9101996E-2,8.482053E-2,1.4078533E-4,-1.9316483E-2,9.478136E-3,4.5877464E-2,2.7772617E-3,2.4261398E-2,2.3514954E-2,3.925093E-2,-3.9687663E-2,-6.9390247E-3,-1.5500421E-2,1.347126E-2,-2.284832E-2,3.2469753E-2,-2.1718906E-3,1.5863057E-2,-4.6473322E-3,2.922774E-2,9.700886E-3,3.621861E-2,1.2248228E-2,3.394592E-2,3.2588255E-2,5.2263927E-2,4.592242E-3,2.297728E-2,2.610653E-2,5.7278205E-2,3.4032978E-2,6.0000878E-2,4.724206E-2,5.7934195E-2,2.5066555E-2,4.2818334E-2,4.065009E-2,5.944258E-2,4.4370957E-2,5.9903353E-2,7.902766E-2,6.4316325E-2],"split_indices":[12,14,14,4,2,12,12,2,24,7,14,14,14,14,14,7,14,2,38,14,7,25,38,8,3,12,5,38,12,7,7,18,14,3,38,11,38,3,5,2,50,2,49,3,5,2,8,7,38,8,12,9,0,8,38,7,7,5,25,12,38,1,17,0,0,0,0,0,0,0,0,0,0,0,0,0,0,0,0,0,0,0,0,0,0,0,0,0,0,0,0,0,0,0,0,0,0,0,0,0,0,0,0,0,0,0,0,0,0,0,0,0,0,0,0,0,0,0,0,0,0,0,0,0,0,0,0],"split_type":[0,0,0,0,0,0,0,0,0,0,0,0,0,0,0,0,0,0,0,0,0,0,0,0,0,0,0,0,0,0,0,0,0,0,0,0,0,0,0,0,0,0,0,0,0,0,0,0,0,0,0,0,0,0,0,0,0,0,0,0,0,0,0,0,0,0,0,0,0,0,0,0,0,0,0,0,0,0,0,0,0,0,0,0,0,0,0,0,0,0,0,0,0,0,0,0,0,0,0,0,0,0,0,0,0,0,0,0,0,0,0,0,0,0,0,0,0,0,0,0,0,0,0,0,0,0,0],"sum_hessian":[2.3858E4,1.5585E4,8.273E3,6.045E3,9.54E3,2.634E3,5.639E3,4.724E3,1.321E3,4.776E3,4.764E3,1.264E3,1.37E3,2.361E3,3.278E3,2.564E3,2.16E3,8.75E2,4.46E2,3.716E3,1.06E3,2.519E3,2.245E3,4.15E2,8.49E2,5.59E2,8.11E2,1.473E3,8.88E2,1.714E3,1.564E3,6.45E2,1.919E3,8.84E2,1.276E3,4.29E2,4.46E2,2.81E2,1.65E2,2.729E3,9.87E2,9.28E2,1.32E2,1.584E3,9.35E2,1.21E3,1.035E3,3.01E2,1.14E2,2.59E2,5.9E2,4.36E2,1.23E2,5.4E2,2.71E2,9.74E2,4.99E2,5.29E2,3.59E2,9.43E2,7.71E2,1.056E3,5.08E2,1.42E2,5.03E2,6.98E2,1.221E3,4.55E2,4.29E2,8.21E2,4.55E2,4.21E2,8E0,3.78E2,6.8E1,2.73E2,8E0,4.1E1,1.24E2,7.69E2,1.96E3,2.41E2,7.46E2,2.04E2,7.24E2,1.05E2,2.7E1,8.43E2,7.41E2,7.76E2,1.59E2,6.54E2,5.56E2,5.22E2,5.13E2,2.5E2,5.1E1,8.6E1,2.8E1,2.31E2,2.8E1,3.27E2,2.63E2,3.96E2,4E1,7.1E1,5.2E1,3.42E2,1.98E2,1.54E2,1.17E2,6.14E2,3.6E2,4.51E2,4.8E1,4.81E2,4.8E1,2.15E2,1.44E2,3.94E2,5.49E2,2.81E2,4.9E2,2.89E2,7.67E2,2.23E2,2.85E2],"tree_param":{"num_deleted":"0","num_feature":"60","num_nodes":"127","size_leaf_vector":"1"}},{"base_weights":[-4.6587614E-3,-2.9798537E-1,5.9194654E-1,-6.225032E-1,2.1101797E-2,9.421143E-2,8.053736E-1,-8.394965E-1,-3.7245992E-1,-1.9959863E-1,2.8947452E-1,-1.8052348E-1,3.114304E-1,6.1561996E-1,1.0532184E0,-9.4729054E-1,-2.2695097E-1,-4.5333883E-1,2.077578E-1,-7.4569486E-2,-6.9822323E-1,1.5998647E-1,5.421299E-1,-4.8398218E-1,1.1791034E-2,-6.5581694E-2,4.5833573E-1,4.1748092E-1,8.2046175E-1,8.78242E-1,1.2341689E0,-1.1665896E0,-7.1714205E-1,2.1191427E-1,-4.5104563E-1,-6.8536574E-1,-2.4867095E-1,4.015799E-2,5.888171E-1,-2.3403457E-1,2.85468E-1,-7.7765524E-1,-1.0845579E-2,5.097623E-2,4.4242734E-1,3.0409223E-1,6.917201E-1,-7.8260434E-1,-3.3177257E-1,1.3690397E-1,-4.0504998E-1,-1.3289124E-1,4.794193E-1,3.3844036E-1,7.001033E-1,3.322515E-1,7.4539316E-1,9.310397E-1,5.220288E-1,6.854081E-1,1.0315523E0,1.2921004E0,8.186076E-1,-7.2536565E-2,-4.8159502E-2,-4.0272556E-2,-1.6169345E-2,5.6186604E-4,2.9071724E-2,-4.1919913E-2,-9.577156E-3,-4.8029117E-2,-2.5675261E-2,-2.415305E-2,-5.599206E-3,5.2392064E-3,-4.860821E-2,1.7049301E-2,5.6421053E-2,-2.1798497E-2,-3.2626768E-3,3.0913046E-2,4.2441525E-3,-4.233014E-2,-6.606555E-3,-2.1967096E-2,1.1057085E-2,-4.3872283E-3,1.3212037E-2,-4.454869E-2,2.3817962E-2,3.7631036E-3,2.9542714E-2,4.0296447E-2,2.0904904E-2,-5.7124127E-2,-2.8339121E-2,-2.194567E-2,1.5704256E-2,1.751305E-3,1.9058466E-2,-2.4058389E-2,1.7893752E-2,-1.5079081E-2,5.114479E-3,6.524725E-2,1.355387E-2,-3.7045497E-3,2.2116331E-2,2.3096843E-2,4.6322566E-2,9.982885E-3,2.609717E-2,3.90717E-2,-2.3762198E-2,3.717738E-2,5.32445E-2,1.3597143E-2,3.2647308E-2,2.5151193E-2,4.466493E-2,4.5470223E-2,6.5291226E-2,6.0881555E-2,7.5799786E-2,3.3742003E-2,5.9136044E-2],"categories":[],"categories_nodes":[],"categories_segments":[],"categories_sizes":[],"default_left":[0,0,0,0,0,0,0,0,0,0,0,0,0,0,0,0,0,0,0,0,0,0,0,0,0,0,0,0,0,0,0,0,0,0,0,0,0,0,0,0,0,0,0,0,0,0,0,0,0,0,0,0,0,0,0,0,0,0,0,0,0,0,0,0,0,0,0,0,0,0,0,0,0,0,0,0,0,0,0,0,0,0,0,0,0,0,0,0,0,0,0,0,0,0,0,0,0,0,0,0,0,0,0,0,0,0,0,0,0,0,0,0,0,0,0,0,0,0,0,0,0,0,0,0,0,0,0],"id":8,"left_children":[1,3,5,7,9,11,13,15,17,19,21,23,25,27,29,31,33,35,37,39,41,43,45,47,49,51,53,55,57,59,61,63,65,67,69,71,73,75,77,79,81,83,85,87,89,91,93,95,97,99,101,103,105,107,109,111,113,115,117,119,121,123,125,-1,-1,-1,-1,-1,-1,-1,-1,-1,-1,-1,-1,-1,-1,-1,-1,-1,-1,-1,-1,-1,-1,-1,-1,-1,-1,-1,-1,-1,-1,-1,-1,-1,-1,-1,-1,-1,-1,-1,-1,-1,-1,-1,-1,-1,-1,-1,-1,-1,-1,-1,-1,-1,-1,-1,-1,-1,-1,-1,-1,-1,-1,-1,-1],"loss_changes":[4.178482E3,1.6575298E3,8.359553E2,4.302766E2,4.7816205E2,1.4107446E2,2.5838965E2,2.8027515E2,1.7320935E2,2.7612567E2,1.1909714E2,6.093305E1,7.313837E1,1.2637073E2,7.449341E1,1.8146558E2,6.2742844E1,1.535971E2,2.8843544E1,2.0348251E2,4.8476227E1,7.417879E1,4.3730072E1,1.814888E1,3.3432865E1,1.3673389E1,2.7300552E1,4.4161346E1,5.013611E1,3.5271606E1,2.7132935E1,1.0540674E2,6.1112427E1,1.6010769E1,4.2258415E1,7.1259155E1,5.5115402E1,2.0709944E1,1.8070057E1,8.367906E1,7.257508E1,3.5315857E1,9.341887E0,5.1499737E1,3.0783707E1,3.13218E1,2.3319336E1,9.915527E0,1.8821247E1,1.225507E1,8.76688E0,1.3162525E1,6.697914E0,2.733226E1,1.6499298E1,3.166272E1,1.4757019E1,2.726538E1,1.3475258E1,2.010112E1,2.1459717E1,1.5260864E1,6.8446198E0,0E0,0E0,0E0,0E0,0E0,0E0,0E0,0E0,0E0,0E0,0E0,0E0,0E0,0E0,0E0,0E0,0E0,0E0,0E0,0E0,0E0,0E0,0E0,0E0,0E0,0E0,0E0,0E0,0E0,0E0,0E0,0E0,0E0,0E0,0E0,0E0,0E0,0E0,0E0,0E0,0E0,0E0,0E0,0E0,0E0,0E0,0E0,0E0,0E0,0E0,0E0,0E0,0E0,0E0,0E0,0E0,0E0,0E0,0E0,0E0,0E0,0E0,0E0,0E0],"parents":[2147483647,0,0,1,1,2,2,3,3,4,4,5,5,6,6,7,7,8,8,9,9,10,10,11,11,12,12,13,13,14,14,15,15,16,16,17,17,18,18,19,19,20,20,21,21,22,22,23,23,24,24,25,25,26,26,27,27,28,28,29,29,30,30,31,31,32,32,33,33,34,34,35,35,36,36,37,37,38,38,39,39,40,40,41,41,42,42,43,43,44,44,45,45,46,46,47,47,48,48,49,49,50,50,51,51,52,52,53,53,54,54,55,55,56,56,57,57,58,58,59,59,60,60,61,61,62,62],"right_children":[2,4,6,8,10,12,14,16,18,20,22,24,26,28,30,32,34,36,38,40,42,44,46,48,50,52,54,56,58,60,62,64,66,68,70,72,74,76,78,80,82,84,86,88,90,92,94,96,98,100,102,104,106,108,110,112,114,116,118,120,122,124,126,-1,-1,-1,-1,-1,-1,-1,-1,-1,-1,-1,-1,-1,-1,-1,-1,-1,-1,-1,-1,-1,-1,-1,-1,-1,-1,-1,-1,-1,-1,-1,-1,-1,-1,-1,-1,-1,-1,-1,-1,-1,-1,-1,-1,-1,-1,-1,-1,-1,-1,-1,-1,-1,-1,-1,-1,-1,-1,-1,-1,-1,-1,-1,-1],"split_conditions":[3.4E1,4.248495E0,3.9512436E0,2.11557E1,3.15114E1,5.9E1,7.1E1,3E0,3E0,1E0,5.5373344E0,2.944439E0,2.5649493E0,5.159055E0,5.159055E0,3.3322046E0,-2.62037E1,3.218876E0,4.884286E0,4.2E1,1.384898E2,3E0,2E0,1.84551E1,1E0,4E0,1E0,2E0,2.2E1,1E0,4.9E1,1E0,2E1,5E1,3E0,1E0,1E0,1E0,1E0,1E0,7.0238E4,1E0,5.062595E0,4.864286E0,4.475714E0,1.1E1,1.90552E1,1E0,5.43403E1,2.8942549E-3,4E0,5.3E1,-7.94408E1,1.1928341E-3,4.8185716E0,3.83189E1,1.76E2,1E0,4.1E1,1E0,1.29E2,3E0,4E0,-7.2536565E-2,-4.8159502E-2,-4.0272556E-2,-1.6169345E-2,5.6186604E-4,2.9071724E-2,-4.1919913E-2,-9.577156E-3,-4.8029117E-2,-2.5675261E-2,-2.415305E-2,-5.599206E-3,5.2392064E-3,-4.860821E-2,1.7049301E-2,5.6421053E-2,-2.1798497E-2,-3.2626768E-3,3.0913046E-2,4.2441525E-3,-4.233014E-2,-6.606555E-3,-2.1967096E-2,1.1057085E-2,-4.3872283E-3,1.3212037E-2,-4.454869E-2,2.3817962E-2,3.7631036E-3,2.9542714E-2,4.0296447E-2,2.0904904E-2,-5.7124127E-2,-2.8339121E-2,-2.194567E-2,1.5704256E-2,1.751305E-3,1.9058466E-2,-2.4058389E-2,1.7893752E-2,-1.5079081E-2,5.114479E-3,6.524725E-2,1.355387E-2,-3.7045497E-3,2.2116331E-2,2.3096843E-2,4.6322566E-2,9.982885E-3,2.609717E-2,3.90717E-2,-2.3762198E-2,3.717738E-2,5.32445E-2,1.3597143E-2,3.2647308E-2,2.5151193E-2,4.466493E-2,4.5470223E-2,6.5291226E-2,6.0881555E-2,7.5799786E-2,3.3742003E-2,5.9136044E-2],"split_indices":[12,14,14,2,2,12,12,5,5,52,14,14,14,14,14,14,2,14,38,35,3,6,10,2,57,5,8,25,15,1,15,15,12,15,19,15,15,52,27,1,18,59,14,38,38,12,3,15,3,37,24,15,3,37,38,2,15,8,12,8,12,5,6,0,0,0,0,0,0,0,0,0,0,0,0,0,0,0,0,0,0,0,0,0,0,0,0,0,0,0,0,0,0,0,0,0,0,0,0,0,0,0,0,0,0,0,0,0,0,0,0,0,0,0,0,0,0,0,0,0,0,0,0,0,0,0,0],"split_type":[0,0,0,0,0,0,0,0,0,0,0,0,0,0,0,0,0,0,0,0,0,0,0,0,0,0,0,0,0,0,0,0,0,0,0,0,0,0,0,0,0,0,0,0,0,0,0,0,0,0,0,0,0,0,0,0,0,0,0,0,0,0,0,0,0,0,0,0,0,0,0,0,0,0,0,0,0,0,0,0,0,0,0,0,0,0,0,0,0,0,0,0,0,0,0,0,0,0,0,0,0,0,0,0,0,0,0,0,0,0,0,0,0,0,0,0,0,0,0,0,0,0,0,0,0,0,0],"sum_hessian":[2.3875E4,1.6006E4,7.869E3,7.935E3,8.071E3,2.362E3,5.507E3,4.247E3,3.688E3,4.429E3,3.642E3,1.043E3,1.319E3,3.121E3,2.386E3,3.611E3,6.36E2,3.237E3,4.51E2,3.542E3,8.87E2,2.409E3,1.233E3,4.04E2,6.39E2,3.7E2,9.49E2,1.588E3,1.533E3,1.216E3,1.17E3,1.847E3,1.764E3,2.15E2,4.21E2,1.516E3,1.721E3,3.14E2,1.37E2,2.455E3,1.087E3,7.95E2,9.2E1,1.739E3,6.7E2,4.77E2,7.56E2,1.35E2,2.69E2,4.92E2,1.47E2,3.3E2,4E1,6.36E2,3.13E2,1.262E3,3.26E2,1.117E3,4.16E2,5.41E2,6.75E2,1.025E3,1.45E2,7.68E2,1.079E3,1.44E3,3.24E2,1.4E2,7.5E1,1.68E2,2.53E2,5.81E2,9.35E2,6.33E2,1.088E3,2.96E2,1.8E1,9.5E1,4.2E1,1.117E3,1.338E3,4.08E2,6.79E2,7.18E2,7.7E1,3.2E1,6E1,1.054E3,6.85E2,1.6E1,6.54E2,2.66E2,2.11E2,5.32E2,2.24E2,4.9E1,8.6E1,2.31E2,3.8E1,3.48E2,1.44E2,1.34E2,1.3E1,1.92E2,1.38E2,7E0,3.3E1,1.28E2,5.08E2,1.54E2,1.59E2,7.44E2,5.18E2,3.17E2,9E0,4.68E2,6.49E2,1.44E2,2.72E2,2.9E2,2.51E2,4.7E2,2.05E2,7.74E2,2.51E2,1.06E2,3.9E1],"tree_param":{"num_deleted":"0","num_feature":"60","num_nodes":"127","size_leaf_vector":"1"}},{"base_weights":[1.8809797E-3,-2.984179E-1,5.051772E-1,-5.3630614E-1,-4.6412025E-2,2.1790466E-1,7.096438E-1,-7.612349E-1,-2.9128954E-1,-2.910343E-1,2.1202938E-1,-5.571977E-2,4.3859237E-1,4.6495953E-1,9.15926E-1,-9.219949E-1,-3.1631416E-1,-9.442912E-2,-4.8064116E-1,-7.3963636E-1,-1.4554171E-1,3.410858E-1,-1.0802073E-1,-1.7430727E-1,3.0715504E-1,5.2560383E-1,-3.5481103E-2,3.403062E-1,6.5750825E-1,1.066391E0,6.815097E-1,-1.3299716E0,-7.9270923E-1,2.0134424E-1,-5.041486E-1,8.219553E-2,-5.1020795E-1,-6.112954E-1,-4.9608044E-2,-1.8327107E-1,-8.641058E-1,4.6639547E-1,-2.4126996E-1,4.4540906E-1,-1.02836795E-1,6.608706E-3,-1.0041814E0,-3.2010922E-1,8.859244E-2,4.3829545E-1,-7.060627E-2,6.302102E-1,1.765617E-1,2.09511E-2,-6.465609E-1,9.999595E-1,2.9429314E-1,4.2382896E-1,7.972302E-1,9.780373E-1,1.286269E0,5.6654805E-1,9.2311424E-1,-8.039754E-2,-5.6898575E-2,-4.2151675E-2,6.692187E-3,6.437592E-3,4.5836605E-2,-3.937598E-2,-9.9197095E-3,-1.2695724E-2,1.45488605E-2,-3.793727E-2,-1.207729E-2,-4.133495E-2,-2.1578144E-2,-4.7234548E-4,-8.81772E-2,-6.503177E-3,-9.459119E-2,-5.3356674E-2,-3.441106E-2,-1.3676007E-2,2.8315267E-2,-1.4498676E-2,5.540393E-2,1.8790098E-2,4.977138E-2,-9.089087E-3,4.8481237E-2,3.7200337E-3,-7.6657824E-2,-5.4567672E-2,-4.0397644E-3,-2.7020952E-2,-8.802347E-3,-6.5031135E-3,1.1580232E-2,2.8679692E-4,2.7936542E-2,-4.9813792E-2,1.2775743E-3,3.7656244E-2,2.3824446E-2,-4.3663164E-3,2.2243338E-2,-3.9496915E-3,1.796289E-2,-3.9885905E-2,8.903714E-3,4.067206E-2,7.8670435E-2,1.094114E-2,2.9360538E-2,-4.7552637E-3,2.3361653E-2,1.1561072E-2,4.394518E-2,4.1036967E-2,5.559812E-2,3.5235513E-2,6.607003E-2,2.0429095E-2,4.0028762E-2,5.2051194E-2,2.184066E-2],"categories":[],"categories_nodes":[],"categories_segments":[],"categories_sizes":[],"default_left":[0,0,0,0,0,0,0,0,0,0,0,0,0,0,0,0,0,0,0,0,0,0,0,0,0,0,0,0,0,0,0,0,0,0,0,0,0,0,0,0,0,0,0,0,0,0,0,0,0,0,0,0,0,0,0,0,0,0,0,0,0,0,0,0,0,0,0,0,0,0,0,0,0,0,0,0,0,0,0,0,0,0,0,0,0,0,0,0,0,0,0,0,0,0,0,0,0,0,0,0,0,0,0,0,0,0,0,0,0,0,0,0,0,0,0,0,0,0,0,0,0,0,0,0,0,0,0],"id":9,"left_children":[1,3,5,7,9,11,13,15,17,19,21,23,25,27,29,31,33,35,37,39,41,43,45,47,49,51,53,55,57,59,61,63,65,67,69,71,73,75,77,79,81,83,85,87,89,91,93,95,97,99,101,103,105,107,109,111,113,115,117,119,121,123,125,-1,-1,-1,-1,-1,-1,-1,-1,-1,-1,-1,-1,-1,-1,-1,-1,-1,-1,-1,-1,-1,-1,-1,-1,-1,-1,-1,-1,-1,-1,-1,-1,-1,-1,-1,-1,-1,-1,-1,-1,-1,-1,-1,-1,-1,-1,-1,-1,-1,-1,-1,-1,-1,-1,-1,-1,-1,-1,-1,-1,-1,-1,-1,-1],"loss_changes":[3.6024045E3,8.9489734E2,5.230215E2,4.2297778E2,4.5841052E2,2.2375288E2,2.621902E2,2.860249E2,1.3701791E2,2.4301666E2,1.4567662E2,7.1272194E1,8.462204E1,5.694867E1,9.880957E1,1.5401733E2,1.0355854E2,1.325219E2,1.0550644E2,6.2998047E1,1.649557E2,1.1642645E2,1.0417119E2,4.7865814E1,2.0243172E1,6.3164124E1,1.1014125E1,4.3656403E1,3.0189972E1,3.2098145E1,3.0196411E1,3.5850708E1,1.0432654E2,1.4630576E1,6.751111E1,8.898386E1,3.5740402E1,5.531543E1,3.0063627E1,1.5026464E1,2.586914E1,2.8320267E1,1.6027911E2,7.7536285E1,4.0730995E1,9.4059395E1,9.168571E0,2.5390747E1,1.3976671E1,1.5781727E1,9.460549E0,2.4827637E1,2.8430647E1,9.935306E0,3.5075912E0,8.774246E0,2.982595E1,7.972828E0,2.6793854E1,2.4977661E1,9.05957E0,2.7473114E1,1.9900848E1,0E0,0E0,0E0,0E0,0E0,0E0,0E0,0E0,0E0,0E0,0E0,0E0,0E0,0E0,0E0,0E0,0E0,0E0,0E0,0E0,0E0,0E0,0E0,0E0,0E0,0E0,0E0,0E0,0E0,0E0,0E0,0E0,0E0,0E0,0E0,0E0,0E0,0E0,0E0,0E0,0E0,0E0,0E0,0E0,0E0,0E0,0E0,0E0,0E0,0E0,0E0,0E0,0E0,0E0,0E0,0E0,0E0,0E0,0E0,0E0,0E0,0E0,0E0,0E0],"parents":[2147483647,0,0,1,1,2,2,3,3,4,4,5,5,6,6,7,7,8,8,9,9,10,10,11,11,12,12,13,13,14,14,15,15,16,16,17,17,18,18,19,19,20,20,21,21,22,22,23,23,24,24,25,25,26,26,27,27,28,28,29,29,30,30,31,31,32,32,33,33,34,34,35,35,36,36,37,37,38,38,39,39,40,40,41,41,42,42,43,43,44,44,45,45,46,46,47,47,48,48,49,49,50,50,51,51,52,52,53,53,54,54,55,55,56,56,57,57,58,58,59,59,60,60,61,61,62,62],"right_children":[2,4,6,8,10,12,14,16,18,20,22,24,26,28,30,32,34,36,38,40,42,44,46,48,50,52,54,56,58,60,62,64,66,68,70,72,74,76,78,80,82,84,86,88,90,92,94,96,98,100,102,104,106,108,110,112,114,116,118,120,122,124,126,-1,-1,-1,-1,-1,-1,-1,-1,-1,-1,-1,-1,-1,-1,-1,-1,-1,-1,-1,-1,-1,-1,-1,-1,-1,-1,-1,-1,-1,-1,-1,-1,-1,-1,-1,-1,-1,-1,-1,-1,-1,-1,-1,-1,-1,-1,-1,-1,-1,-1,-1,-1,-1,-1,-1,-1,-1,-1,-1,-1,-1,-1,-1,-1],"split_conditions":[2.9E1,1E0,5.1E1,2.44473E1,2.44473E1,1E0,1E0,2E0,1.99447E1,1E0,3.03306E1,1E0,7.7E1,4.1055E1,1.6E1,2E0,-2.60535E1,1E0,1.5E0,-3.35854E1,-3.35854E1,1E0,4.36596E1,5E0,1.63178E1,1E0,2.03E2,-1.171552E2,2E0,1.09E2,1E0,1.5E1,1.384898E2,1.386097E2,1E0,1E0,2.3E1,2.7E1,1E0,1E0,2.8E1,-5.61778E1,3.5E0,2E0,2.5E0,1E0,3E0,1.84551E1,3.2E1,1E0,1E0,1.88773E1,2.360503E-3,4.6E1,8E0,3E0,7E0,5.8445596E-4,3E0,3.75793E1,1.5E1,1E2,1.44229E1,-8.039754E-2,-5.6898575E-2,-4.2151675E-2,6.692187E-3,6.437592E-3,4.5836605E-2,-3.937598E-2,-9.9197095E-3,-1.2695724E-2,1.45488605E-2,-3.793727E-2,-1.207729E-2,-4.133495E-2,-2.1578144E-2,-4.7234548E-4,-8.81772E-2,-6.503177E-3,-9.459119E-2,-5.3356674E-2,-3.441106E-2,-1.3676007E-2,2.8315267E-2,-1.4498676E-2,5.540393E-2,1.8790098E-2,4.977138E-2,-9.089087E-3,4.8481237E-2,3.7200337E-3,-7.6657824E-2,-5.4567672E-2,-4.0397644E-3,-2.7020952E-2,-8.802347E-3,-6.5031135E-3,1.1580232E-2,2.8679692E-4,2.7936542E-2,-4.9813792E-2,1.2775743E-3,3.7656244E-2,2.3824446E-2,-4.3663164E-3,2.2243338E-2,-3.9496915E-3,1.796289E-2,-3.9885905E-2,8.903714E-3,4.067206E-2,7.8670435E-2,1.094114E-2,2.9360538E-2,-4.7552637E-3,2.3361653E-2,1.1561072E-2,4.394518E-2,4.1036967E-2,5.559812E-2,3.5235513E-2,6.607003E-2,2.0429095E-2,4.0028762E-2,5.2051194E-2,2.184066E-2],"split_indices":[12,1,12,2,2,1,1,7,3,50,3,56,15,2,15,21,2,54,7,2,2,54,2,4,3,57,15,3,5,12,56,0,3,3,27,50,0,35,53,53,35,3,7,7,7,53,26,2,35,50,50,3,37,35,19,6,4,37,22,2,0,12,3,0,0,0,0,0,0,0,0,0,0,0,0,0,0,0,0,0,0,0,0,0,0,0,0,0,0,0,0,0,0,0,0,0,0,0,0,0,0,0,0,0,0,0,0,0,0,0,0,0,0,0,0,0,0,0,0,0,0,0,0,0,0,0,0],"split_type":[0,0,0,0,0,0,0,0,0,0,0,0,0,0,0,0,0,0,0,0,0,0,0,0,0,0,0,0,0,0,0,0,0,0,0,0,0,0,0,0,0,0,0,0,0,0,0,0,0,0,0,0,0,0,0,0,0,0,0,0,0,0,0,0,0,0,0,0,0,0,0,0,0,0,0,0,0,0,0,0,0,0,0,0,0,0,0,0,0,0,0,0,0,0,0,0,0,0,0,0,0,0,0,0,0,0,0,0,0,0,0,0,0,0,0,0,0,0,0,0,0,0,0,0,0,0,0],"sum_hessian":[2.3833E4,1.4927E4,8.906E3,7.678E3,7.249E3,3.704E3,5.202E3,4.002E3,3.676E3,3.724E3,3.525E3,1.654E3,2.05E3,2.381E3,2.821E3,2.939E3,1.063E3,1.803E3,1.873E3,9.11E2,2.813E3,2.512E3,1.013E3,1.247E3,4.07E2,1.732E3,3.18E2,1.447E3,9.34E2,1.716E3,1.105E3,7.05E2,2.234E3,2.83E2,7.8E2,1.266E3,5.37E2,1.437E3,4.36E2,1.67E2,7.44E2,3.8E2,2.433E3,2.034E3,4.78E2,8.99E2,1.14E2,8.02E2,4.45E2,3.02E2,1.05E2,1.332E3,4E2,2.92E2,2.6E1,9.3E1,1.354E3,3.51E2,5.83E2,1.228E3,4.88E2,7.51E2,3.54E2,2.85E2,4.2E2,2.119E3,1.15E2,2.58E2,2.5E1,4.04E2,3.76E2,4.85E2,7.81E2,2.78E2,2.59E2,6.52E2,7.85E2,4.27E2,9E0,1.63E2,4E0,3.43E2,4.01E2,4.5E1,3.35E2,2.349E3,8.4E1,1.807E3,2.27E2,4.46E2,3.2E1,8.62E2,3.7E1,1.04E2,1E1,3.16E2,4.86E2,1.76E2,2.69E2,6.6E1,2.36E2,9E0,9.6E1,7.38E2,5.94E2,2.02E2,1.98E2,2.26E2,6.6E1,2.2E1,4E0,7.2E1,2.1E1,1.078E3,2.76E2,2.7E1,3.24E2,7.4E1,5.09E2,5.68E2,6.6E2,2.9E1,4.59E2,4.5E2,3.01E2,2.84E2,7E1],"tree_param":{"num_deleted":"0","num_feature":"60","num_nodes":"127","size_leaf_vector":"1"}},{"base_weights":[2.5759156E-5,-2.9205948E-1,4.6873182E-1,-6.473945E-1,-5.9935797E-2,1.7844775E-1,7.8426623E-1,-7.74297E-1,-1.8190446E-1,-2.56869E-1,1.9592941E-1,-1.7739801E-1,3.5010326E-1,5.6969374E-1,9.840799E-1,-1.072669E0,-5.886155E-1,-2.979939E-1,2.9125094E-1,-3.8587934E-1,2.2387592E-1,3.6744453E-2,4.087651E-1,-4.359352E-1,1.0991153E-1,1.11203045E-1,5.877457E-1,6.540842E-1,1.8478672E-1,1.0563252E0,6.754283E-1,-1.2232133E0,-7.7025455E-1,-7.910909E-1,-3.5924986E-1,-4.2942232E-1,4.862693E-2,2.136081E-1,1.467534E0,-5.6513476E-1,-8.002134E-2,1.2603477E-1,9.2284703E-1,-6.0379982E-2,4.3004766E-1,2.497678E-1,6.018334E-1,-5.413148E-1,-8.160375E-2,-1.109942E-1,2.7625114E-1,-1.1654498E-2,3.2402226E-1,4.277953E-1,7.511864E-1,5.1990855E-1,8.791925E-1,-1.4541395E-1,2.8445593E-1,9.519852E-1,1.2354412E0,4.1821706E-1,8.178453E-1,-7.000672E-2,-4.9390946E-2,-2.9847339E-2,-6.0604442E-2,-5.774191E-2,-3.3682756E-2,-1.2870108E-2,-3.5108652E-2,-3.1180998E-2,-1.2377194E-2,-9.216484E-3,2.2907216E-2,1.8928817E-3,3.0864669E-2,4.0361434E-2,9.721988E-2,-2.2742508E-2,-4.220583E-2,1.6943658E-2,-9.095697E-3,2.7410194E-2,6.7190256E-4,1.3017899E-2,6.0195494E-2,-1.0355595E-2,1.0404995E-2,4.7729235E-2,1.42732365E-2,-2.765108E-3,1.8832445E-2,1.2534405E-2,3.4104772E-2,-3.19192E-2,-8.408563E-3,-7.4790246E-3,2.6545206E-2,-8.977367E-3,1.4259161E-2,7.6620965E-3,2.9811934E-2,-6.004521E-3,1.8504588E-2,2.3295851E-2,3.4815767E-3,1.33612E-2,3.1703673E-2,3.3822056E-2,5.5392385E-2,2.0338723E-2,3.489573E-2,4.2208713E-2,6.2720604E-2,-2.3111386E-2,7.376543E-3,1.8986644E-2,-1.3219505E-4,4.1679654E-2,5.5864096E-2,5.523606E-2,6.8519555E-2,-9.213272E-3,2.7572483E-2,2.6088072E-2,4.636008E-2],"categories":[],"categories_nodes":[],"categories_segments":[],"categories_sizes":[],"default_left":[0,0,0,0,0,0,0,0,0,0,0,0,0,0,0,0,0,0,0,0,0,0,0,0,0,0,0,0,0,0,0,0,0,0,0,0,0,0,0,0,0,0,0,0,0,0,0,0,0,0,0,0,0,0,0,0,0,0,0,0,0,0,0,0,0,0,0,0,0,0,0,0,0,0,0,0,0,0,0,0,0,0,0,0,0,0,0,0,0,0,0,0,0,0,0,0,0,0,0,0,0,0,0,0,0,0,0,0,0,0,0,0,0,0,0,0,0,0,0,0,0,0,0,0,0,0,0],"id":10,"left_children":[1,3,5,7,9,11,13,15,17,19,21,23,25,27,29,31,33,35,37,39,41,43,45,47,49,51,53,55,57,59,61,63,65,67,69,71,73,75,77,79,81,83,85,87,89,91,93,95,97,99,101,103,105,107,109,111,113,115,117,119,121,123,125,-1,-1,-1,-1,-1,-1,-1,-1,-1,-1,-1,-1,-1,-1,-1,-1,-1,-1,-1,-1,-1,-1,-1,-1,-1,-1,-1,-1,-1,-1,-1,-1,-1,-1,-1,-1,-1,-1,-1,-1,-1,-1,-1,-1,-1,-1,-1,-1,-1,-1,-1,-1,-1,-1,-1,-1,-1,-1,-1,-1,-1,-1,-1,-1],"loss_changes":[3.2545742E3,1.2079879E3,8.358439E2,3.41708E2,4.4649112E2,2.9051117E2,1.8692993E2,2.5128223E2,6.825285E1,3.106259E2,1.3055945E2,1.15033676E2,1.8206192E2,6.844971E1,4.974829E1,7.841101E1,1.2998248E2,4.5440025E1,2.206236E1,2.1641064E2,7.237512E1,8.429374E1,5.0469604E1,3.0387344E1,2.7001768E1,4.1864235E1,4.1715576E1,5.182611E1,1.2580392E1,3.306201E1,1.5482681E1,4.7009766E1,4.3842102E1,6.2827637E1,4.5816742E1,2.5382263E1,2.6319387E1,1.6365587E1,3.1535606E0,7.6196106E1,6.237773E1,4.424759E1,2.3892693E1,6.977147E1,3.2869186E1,3.508993E1,2.0797607E1,2.2639282E1,7.907036E0,8.633512E0,1.6401064E1,4.210177E1,2.1120224E1,2.6825256E1,2.0417694E1,2.160672E1,7.4160767E0,8.32819E0,8.015724E0,2.1808838E1,1.0322998E1,1.2623779E1,8.485092E0,0E0,0E0,0E0,0E0,0E0,0E0,0E0,0E0,0E0,0E0,0E0,0E0,0E0,0E0,0E0,0E0,0E0,0E0,0E0,0E0,0E0,0E0,0E0,0E0,0E0,0E0,0E0,0E0,0E0,0E0,0E0,0E0,0E0,0E0,0E0,0E0,0E0,0E0,0E0,0E0,0E0,0E0,0E0,0E0,0E0,0E0,0E0,0E0,0E0,0E0,0E0,0E0,0E0,0E0,0E0,0E0,0E0,0E0,0E0,0E0,0E0,0E0,0E0,0E0],"parents":[2147483647,0,0,1,1,2,2,3,3,4,4,5,5,6,6,7,7,8,8,9,9,10,10,11,11,12,12,13,13,14,14,15,15,16,16,17,17,18,18,19,19,20,20,21,21,22,22,23,23,24,24,25,25,26,26,27,27,28,28,29,29,30,30,31,31,32,32,33,33,34,34,35,35,36,36,37,37,38,38,39,39,40,40,41,41,42,42,43,43,44,44,45,45,46,46,47,47,48,48,49,49,50,50,51,51,52,52,53,53,54,54,55,55,56,56,57,57,58,58,59,59,60,60,61,61,62,62],"right_children":[2,4,6,8,10,12,14,16,18,20,22,24,26,28,30,32,34,36,38,40,42,44,46,48,50,52,54,56,58,60,62,64,66,68,70,72,74,76,78,80,82,84,86,88,90,92,94,96,98,100,102,104,106,108,110,112,114,116,118,120,122,124,126,-1,-1,-1,-1,-1,-1,-1,-1,-1,-1,-1,-1,-1,-1,-1,-1,-1,-1,-1,-1,-1,-1,-1,-1,-1,-1,-1,-1,-1,-1,-1,-1,-1,-1,-1,-1,-1,-1,-1,-1,-1,-1,-1,-1,-1,-1,-1,-1,-1,-1,-1,-1,-1,-1,-1,-1,-1,-1,-1,-1,-1,-1,-1,-1],"split_conditions":[2.7E1,3.871201E0,4.691348E0,5E0,3.04334E1,3.295837E0,5.8E1,1E0,4E0,2E0,4.8557143E0,5.9E1,5.7E1,5.6E1,4.2E1,1E0,2.10614E1,4.8671427E0,9E0,5.0998664E0,3.5E0,5E0,1E0,1E0,2.4849067E0,1.5E0,1.5E0,5.739793E0,2.7E1,1.5E0,3.38303E1,2.44473E1,1E0,1E0,1E0,2.31394E1,3E0,4.8685713E0,2E0,1E0,2.8745E4,-2.60535E1,3E0,5.31812E0,4.6008E-1,1E0,2.7E1,4.5E1,3E0,1.44E2,4.9014287E0,4.5439E1,1E0,1E0,4.937143E0,1E0,3E0,1E0,1E0,5.723585E0,1E0,4.752857E0,4E0,-7.000672E-2,-4.9390946E-2,-2.9847339E-2,-6.0604442E-2,-5.774191E-2,-3.3682756E-2,-1.2870108E-2,-3.5108652E-2,-3.1180998E-2,-1.2377194E-2,-9.216484E-3,2.2907216E-2,1.8928817E-3,3.0864669E-2,4.0361434E-2,9.721988E-2,-2.2742508E-2,-4.220583E-2,1.6943658E-2,-9.095697E-3,2.7410194E-2,6.7190256E-4,1.3017899E-2,6.0195494E-2,-1.0355595E-2,1.0404995E-2,4.7729235E-2,1.42732365E-2,-2.765108E-3,1.8832445E-2,1.2534405E-2,3.4104772E-2,-3.19192E-2,-8.408563E-3,-7.4790246E-3,2.6545206E-2,-8.977367E-3,1.4259161E-2,7.6620965E-3,2.9811934E-2,-6.004521E-3,1.8504588E-2,2.3295851E-2,3.4815767E-3,1.33612E-2,3.1703673E-2,3.3822056E-2,5.5392385E-2,2.0338723E-2,3.489573E-2,4.2208713E-2,6.2720604E-2,-2.3111386E-2,7.376543E-3,1.8986644E-2,-1.3219505E-4,4.1679654E-2,5.5864096E-2,5.523606E-2,6.8519555E-2,-9.213272E-3,2.7572483E-2,2.6088072E-2,4.636008E-2],"split_indices":[12,14,14,4,2,14,12,15,5,7,38,12,12,15,15,1,2,38,11,14,7,4,8,8,14,7,7,14,35,7,2,2,57,7,54,2,10,38,23,52,18,2,19,14,17,7,35,35,5,12,38,2,57,8,38,8,5,56,57,14,8,38,4,0,0,0,0,0,0,0,0,0,0,0,0,0,0,0,0,0,0,0,0,0,0,0,0,0,0,0,0,0,0,0,0,0,0,0,0,0,0,0,0,0,0,0,0,0,0,0,0,0,0,0,0,0,0,0,0,0,0,0,0,0,0,0,0],"split_type":[0,0,0,0,0,0,0,0,0,0,0,0,0,0,0,0,0,0,0,0,0,0,0,0,0,0,0,0,0,0,0,0,0,0,0,0,0,0,0,0,0,0,0,0,0,0,0,0,0,0,0,0,0,0,0,0,0,0,0,0,0,0,0,0,0,0,0,0,0,0,0,0,0,0,0,0,0,0,0,0,0,0,0,0,0,0,0,0,0,0,0,0,0,0,0,0,0,0,0,0,0,0,0,0,0,0,0,0,0,0,0,0,0,0,0,0,0,0,0,0,0,0,0,0,0,0,0],"sum_hessian":[2.3771E4,1.4645E4,9.126E3,5.786E3,8.859E3,4.754E3,4.372E3,4.546E3,1.24E3,5.006E3,3.853E3,1.547E3,3.207E3,2.11E3,2.262E3,1.742E3,2.804E3,9.96E2,2.44E2,3.947E3,1.059E3,2.205E3,1.648E3,8.14E2,7.33E2,1.6E3,1.607E3,1.73E3,3.8E2,1.831E3,4.31E2,1.161E3,5.81E2,1.488E3,1.316E3,7.22E2,2.74E2,2.3E2,1.4E1,2.488E3,1.459E3,9.3E2,1.29E2,1.769E3,4.36E2,9.05E2,7.43E2,6.27E2,1.87E2,3.15E2,4.18E2,1.015E3,5.85E2,8.14E2,7.93E2,1.086E3,6.44E2,8.8E1,2.92E2,1.161E3,6.7E2,1.55E2,2.76E2,6.6E2,5.01E2,4.19E2,1.62E2,3.61E2,1.127E3,1.016E3,3E2,3.48E2,3.74E2,1.75E2,9.9E1,1.61E2,6.9E1,7E0,7E0,1.785E3,7.03E2,2.85E2,1.174E3,1.95E2,7.35E2,3.9E1,9E1,1.144E3,6.25E2,9.3E1,3.43E2,2.66E2,6.39E2,1.39E2,6.04E2,4.97E2,1.3E2,1.69E2,1.8E1,2.69E2,4.6E1,3.03E2,1.15E2,7.91E2,2.24E2,3.75E2,2.1E2,4.59E2,3.55E2,6.58E2,1.35E2,6.66E2,4.2E2,5.92E2,5.2E1,4.2E1,4.6E1,2.19E2,7.3E1,6.8E2,4.81E2,3.45E2,3.25E2,2.8E1,1.27E2,7.6E1,2E2],"tree_param":{"num_deleted":"0","num_feature":"60","num_nodes":"127","size_leaf_vector":"1"}},{"base_weights":[3.5972134E-3,-2.0111041E-1,5.9792536E-1,-4.5986074E-1,1.252695E-1,1.6003066E-1,7.8012323E-1,-5.9692246E-1,-1.3255493E-1,3.1130021E-2,5.031981E-1,-1.3713251E-1,3.2906476E-1,5.5383646E-1,9.116558E-1,-9.398658E-1,-4.6616185E-1,-2.2873731E-1,3.8112563E-1,-9.79496E-2,3.5471657E-1,2.382925E-1,6.4442027E-1,-2.2713996E-1,2.5353196E-1,2.0130628E-1,5.7045186E-1,3.8077134E-1,7.310729E-1,8.3468765E-1,1.174095E0,-1.0172141E0,-3.8526905E-1,-5.4778403E-1,-3.0975956E-2,-4.070677E-1,-2.579786E-2,7.836528E-2,6.273322E-1,-1.9474502E-1,2.6331872E-1,2.2827221E-2,4.8224947E-1,1.3539234E-1,6.467629E-1,8.9498067E-1,5.129241E-1,-2.924924E-1,5.3604496E-1,-3.709504E-2,5.8559954E-1,5.495573E-2,4.063027E-1,4.410201E-1,1.1062187E0,2.3256867E-1,6.227857E-1,5.605644E-1,9.0816563E-1,6.7337406E-1,9.6713084E-1,1.211525E0,5.5865806E-1,-7.011962E-2,-4.577645E-2,-8.561186E-3,-5.6055035E-2,-3.6514577E-2,-1.6046483E-2,8.568035E-3,-3.9073683E-2,-2.5092661E-2,6.8924385E-3,-8.859252E-3,1.6114637E-2,-4.6442966E-3,2.766651E-2,2.4366323E-2,5.3478103E-2,-4.095155E-3,-2.6697356E-2,2.2574361E-2,-1.0316914E-2,-9.553006E-3,1.5395159E-2,9.456126E-3,2.8063541E-2,-7.0744874E-3,1.5763618E-2,2.599646E-2,7.716935E-2,5.433174E-2,2.7218834E-2,9.5025444E-4,2.7992785E-2,-1.6889649E-2,7.4572773E-3,3.6252484E-2,-7.063756E-3,2.0302512E-2,-1.1243912E-2,1.4231822E-2,5.4399103E-2,-1.0191026E-2,1.0944989E-2,2.6691308E-2,5.9729437E-3,1.452692E-2,3.097972E-2,3.873469E-2,6.926119E-2,3.392119E-3,2.5235359E-2,2.861623E-2,6.747898E-2,2.3056816E-2,4.353082E-2,4.840387E-2,2.1965597E-2,3.0884266E-2,5.6293137E-2,4.3792263E-2,5.7026424E-2,5.1111426E-2,6.450274E-2,3.5357084E-2,-1.631821E-2],"categories":[],"categories_nodes":[],"categories_segments":[],"categories_sizes":[],"default_left":[0,0,0,0,0,0,0,0,0,0,0,0,0,0,0,0,0,0,0,0,0,0,0,0,0,0,0,0,0,0,0,0,0,0,0,0,0,0,0,0,0,0,0,0,0,0,0,0,0,0,0,0,0,0,0,0,0,0,0,0,0,0,0,0,0,0,0,0,0,0,0,0,0,0,0,0,0,0,0,0,0,0,0,0,0,0,0,0,0,0,0,0,0,0,0,0,0,0,0,0,0,0,0,0,0,0,0,0,0,0,0,0,0,0,0,0,0,0,0,0,0,0,0,0,0,0,0],"id":11,"left_children":[1,3,5,7,9,11,13,15,17,19,21,23,25,27,29,31,33,35,37,39,41,43,45,47,49,51,53,55,57,59,61,63,65,67,69,71,73,75,77,79,81,83,85,87,89,91,93,95,97,99,101,103,105,107,109,111,113,115,117,119,121,123,125,-1,-1,-1,-1,-1,-1,-1,-1,-1,-1,-1,-1,-1,-1,-1,-1,-1,-1,-1,-1,-1,-1,-1,-1,-1,-1,-1,-1,-1,-1,-1,-1,-1,-1,-1,-1,-1,-1,-1,-1,-1,-1,-1,-1,-1,-1,-1,-1,-1,-1,-1,-1,-1,-1,-1,-1,-1,-1,-1,-1,-1,-1,-1,-1],"loss_changes":[2.8878035E3,1.4910383E3,4.8503857E2,4.417129E2,2.7777734E2,8.9857635E1,1.2730176E2,3.1082056E2,1.4376279E2,2.6117096E2,5.8094666E1,2.2878187E1,3.50419E1,4.82164E1,5.384131E1,8.175598E1,1.7854614E2,8.865567E1,3.416543E1,1.5636322E2,7.54577E1,2.273563E1,3.298291E1,2.6491304E1,1.1795673E1,2.2388672E1,2.6834167E1,2.8620636E1,2.304364E1,4.4257812E1,1.3444153E1,6.451636E1,3.697835E1,1.7502295E2,1.20857216E2,6.742102E1,6.049993E1,1.6888428E1,1.5143204E1,1.3491821E2,8.360719E1,3.0301998E1,2.972815E1,2.1710024E1,1.1593269E1,2.2792206E1,1.5473877E1,9.793522E0,5.4791317E0,5.5835176E0,8.308641E0,1.8584265E1,1.1312397E1,8.392208E0,5.956665E0,2.2335112E1,1.0376732E1,1.192968E1,1.0276947E1,2.3268372E1,1.7235596E1,7.258606E0,5.093004E0,0E0,0E0,0E0,0E0,0E0,0E0,0E0,0E0,0E0,0E0,0E0,0E0,0E0,0E0,0E0,0E0,0E0,0E0,0E0,0E0,0E0,0E0,0E0,0E0,0E0,0E0,0E0,0E0,0E0,0E0,0E0,0E0,0E0,0E0,0E0,0E0,0E0,0E0,0E0,0E0,0E0,0E0,0E0,0E0,0E0,0E0,0E0,0E0,0E0,0E0,0E0,0E0,0E0,0E0,0E0,0E0,0E0,0E0,0E0,0E0,0E0,0E0,0E0,0E0],"parents":[2147483647,0,0,1,1,2,2,3,3,4,4,5,5,6,6,7,7,8,8,9,9,10,10,11,11,12,12,13,13,14,14,15,15,16,16,17,17,18,18,19,19,20,20,21,21,22,22,23,23,24,24,25,25,26,26,27,27,28,28,29,29,30,30,31,31,32,32,33,33,34,34,35,35,36,36,37,37,38,38,39,39,40,40,41,41,42,42,43,43,44,44,45,45,46,46,47,47,48,48,49,49,50,50,51,51,52,52,53,53,54,54,55,55,56,56,57,57,58,58,59,59,60,60,61,61,62,62],"right_children":[2,4,6,8,10,12,14,16,18,20,22,24,26,28,30,32,34,36,38,40,42,44,46,48,50,52,54,56,58,60,62,64,66,68,70,72,74,76,78,80,82,84,86,88,90,92,94,96,98,100,102,104,106,108,110,112,114,116,118,120,122,124,126,-1,-1,-1,-1,-1,-1,-1,-1,-1,-1,-1,-1,-1,-1,-1,-1,-1,-1,-1,-1,-1,-1,-1,-1,-1,-1,-1,-1,-1,-1,-1,-1,-1,-1,-1,-1,-1,-1,-1,-1,-1,-1,-1,-1,-1,-1,-1,-1,-1,-1,-1,-1,-1,-1,-1,-1,-1,-1,-1,-1,-1,-1,-1,-1],"split_conditions":[4.6E1,4.4886365E0,3.912023E0,1.5E0,5E0,2.8332133E0,1E0,2.8332133E0,5.1E1,1E0,4.792857E0,1.21E2,1E0,7.7E1,1.11E2,1E0,1E0,6E0,3.465736E0,1E0,4.785714E0,1E0,3E0,1E0,2.3025851E0,8.6E1,2.5E0,5.1817837E0,1E0,5.209486E0,1.07E2,2E0,2.09917E1,3E0,2.10229E1,1E0,4.87E0,4.9157143E0,1E0,1E0,1.83836E1,1.2E1,4.94876E0,1.5E0,9E0,1.6E1,1.1E1,1E0,1.57E2,1E0,3.1E1,-1.74607E1,1.80608E1,3E0,3.3E1,1.5E0,1E0,1E0,1.01E2,2.5E0,3E0,2E0,4.4E1,-7.011962E-2,-4.577645E-2,-8.561186E-3,-5.6055035E-2,-3.6514577E-2,-1.6046483E-2,8.568035E-3,-3.9073683E-2,-2.5092661E-2,6.8924385E-3,-8.859252E-3,1.6114637E-2,-4.6442966E-3,2.766651E-2,2.4366323E-2,5.3478103E-2,-4.095155E-3,-2.6697356E-2,2.2574361E-2,-1.0316914E-2,-9.553006E-3,1.5395159E-2,9.456126E-3,2.8063541E-2,-7.0744874E-3,1.5763618E-2,2.599646E-2,7.716935E-2,5.433174E-2,2.7218834E-2,9.5025444E-4,2.7992785E-2,-1.6889649E-2,7.4572773E-3,3.6252484E-2,-7.063756E-3,2.0302512E-2,-1.1243912E-2,1.4231822E-2,5.4399103E-2,-1.0191026E-2,1.0944989E-2,2.6691308E-2,5.9729437E-3,1.452692E-2,3.097972E-2,3.873469E-2,6.926119E-2,3.392119E-3,2.5235359E-2,2.861623E-2,6.747898E-2,2.3056816E-2,4.353082E-2,4.840387E-2,2.1965597E-2,3.0884266E-2,5.6293137E-2,4.3792263E-2,5.7026424E-2,5.1111426E-2,6.450274E-2,3.5357084E-2,-1.631821E-2],"split_indices":[12,14,14,7,4,14,1,14,35,8,38,12,8,12,12,56,56,11,14,56,38,56,12,9,14,12,7,14,8,14,15,21,3,21,3,8,38,38,8,52,3,12,14,7,4,15,12,49,15,33,0,3,3,23,0,7,9,56,15,7,6,19,0,0,0,0,0,0,0,0,0,0,0,0,0,0,0,0,0,0,0,0,0,0,0,0,0,0,0,0,0,0,0,0,0,0,0,0,0,0,0,0,0,0,0,0,0,0,0,0,0,0,0,0,0,0,0,0,0,0,0,0,0,0,0,0,0],"split_type":[0,0,0,0,0,0,0,0,0,0,0,0,0,0,0,0,0,0,0,0,0,0,0,0,0,0,0,0,0,0,0,0,0,0,0,0,0,0,0,0,0,0,0,0,0,0,0,0,0,0,0,0,0,0,0,0,0,0,0,0,0,0,0,0,0,0,0,0,0,0,0,0,0,0,0,0,0,0,0,0,0,0,0,0,0,0,0,0,0,0,0,0,0,0,0,0,0,0,0,0,0,0,0,0,0,0,0,0,0,0,0,0,0,0,0,0,0,0,0,0,0,0,0,0,0,0,0],"sum_hessian":[2.3734E4,1.7654E4,6.08E3,9.847E3,7.807E3,1.787E3,4.293E3,6.94E3,2.907E3,6.251E3,1.556E3,6.48E2,1.139E3,1.58E3,2.713E3,1.914E3,5.026E3,2.449E3,4.58E2,4.469E3,1.782E3,5.42E2,1.014E3,5.27E2,1.21E2,7.46E2,3.93E2,8.01E2,7.79E2,2.101E3,6.12E2,1.679E3,2.35E2,4.232E3,7.94E2,1.303E3,1.146E3,2.06E2,2.52E2,3.525E3,9.44E2,4.95E2,1.287E3,4.34E2,1.08E2,3.47E2,6.67E2,4.86E2,4.1E1,6.5E1,5.6E1,4.36E2,3.1E2,3.18E2,7.5E1,4.98E2,3.03E2,3.99E2,3.8E2,9.5E2,1.151E3,5.76E2,3.6E1,3.48E2,1.331E3,1.83E2,5.2E1,2.344E3,1.888E3,6.26E2,1.68E2,1.11E3,1.93E2,7.99E2,3.47E2,1.52E2,5.4E1,1.93E2,5.9E1,2.646E3,8.79E2,6.74E2,2.7E2,2.83E2,2.12E2,2.74E2,1.013E3,1.71E2,2.63E2,9.6E1,1.2E1,2.23E2,1.24E2,5.8E1,6.09E2,4.41E2,4.5E1,3.2E1,9E0,1.9E1,4.6E1,3.6E1,2E1,1.69E2,2.67E2,2.14E2,9.6E1,1.74E2,1.44E2,3.6E1,3.9E1,3.11E2,1.87E2,2.85E2,1.8E1,3.04E2,9.5E1,3.36E2,4.4E1,8.48E2,1.02E2,7.58E2,3.93E2,1.73E2,4.03E2,3.1E1,5E0],"tree_param":{"num_deleted":"0","num_feature":"60","num_nodes":"127","size_leaf_vector":"1"}},{"base_weights":[2.8744575E-3,-2.8461942E-1,3.943147E-1,-6.273904E-1,-8.969335E-2,1.476293E-1,7.169129E-1,-7.426233E-1,-2.109525E-1,-1.8981561E-1,3.3793712E-1,-8.210882E-2,3.7819853E-1,5.195051E-1,8.90958E-1,-1.0072774E0,-5.736649E-1,-3.892827E-2,-6.233651E-1,-3.2688734E-1,1.488147E-1,5.4248923E-1,7.270817E-2,-4.5811492E-1,6.567367E-2,5.6880407E-2,5.405171E-1,6.027829E-1,1.5627578E-1,9.633282E-1,5.5876154E-1,-1.1942719E0,-7.2156614E-1,-7.5740814E-1,-3.560361E-1,-1.7093495E-1,2.9799122E-1,-9.1817594E-1,-4.1305447E-1,-4.4821388E-1,1.865344E-2,3.718266E-1,-2.33183E-1,2.4907899E-1,7.94237E-1,-1.4047982E-1,2.7765536E-1,-7.418871E-1,-3.266333E-1,-1.8782051E-1,1.3210602E-1,-2.053823E-1,1.7835951E-1,4.2736635E-1,7.8534186E-1,5.035135E-1,7.6467144E-1,3.2183804E-2,3.938749E-1,8.7651306E-1,1.1280789E0,3.547393E-1,6.8470275E-1,-6.929664E-2,-5.292004E-2,-4.304114E-2,-2.2581741E-2,-5.3090096E-2,-3.25682E-2,-9.564913E-3,-2.8590376E-2,-1.5379361E-2,6.22149E-3,-1.704769E-5,3.5004742E-2,3.0736256E-2,-4.7324385E-2,-4.529852E-2,-1.5872683E-2,-3.0395735E-2,-1.3014699E-2,-1.770317E-2,6.8520172E-3,5.5724224E-3,3.1323463E-2,-4.748018E-3,-3.9594546E-2,-1.0796715E-2,2.4076434E-2,2.4406163E-2,5.2176923E-2,-1.2873368E-2,1.04722E-2,-5.364918E-4,2.0280948E-2,-4.6772514E-2,-2.9119497E-2,-2.0832207E-2,9.189371E-4,-2.2181986E-2,-4.856502E-3,2.9197277E-3,1.98486E-2,-1.6569417E-2,4.0493193E-3,-4.233706E-3,1.6380675E-2,1.4944329E-2,3.0650182E-2,2.9725922E-2,4.8397977E-2,2.3725798E-2,5.4645535E-2,3.1505708E-2,4.3813735E-2,-1.5988873E-2,8.128853E-3,2.7816145E-2,3.3723053E-3,3.9337292E-2,5.223601E-2,4.875622E-2,6.1430078E-2,5.6978273E-3,2.830995E-2,4.0690564E-2,2.2344435E-2],"categories":[],"categories_nodes":[],"categories_segments":[],"categories_sizes":[],"default_left":[0,0,0,0,0,0,0,0,0,0,0,0,0,0,0,0,0,0,0,0,0,0,0,0,0,0,0,0,0,0,0,0,0,0,0,0,0,0,0,0,0,0,0,0,0,0,0,0,0,0,0,0,0,0,0,0,0,0,0,0,0,0,0,0,0,0,0,0,0,0,0,0,0,0,0,0,0,0,0,0,0,0,0,0,0,0,0,0,0,0,0,0,0,0,0,0,0,0,0,0,0,0,0,0,0,0,0,0,0,0,0,0,0,0,0,0,0,0,0,0,0,0,0,0,0,0,0],"id":12,"left_children":[1,3,5,7,9,11,13,15,17,19,21,23,25,27,29,31,33,35,37,39,41,43,45,47,49,51,53,55,57,59,61,63,65,67,69,71,73,75,77,79,81,83,85,87,89,91,93,95,97,99,101,103,105,107,109,111,113,115,117,119,121,123,125,-1,-1,-1,-1,-1,-1,-1,-1,-1,-1,-1,-1,-1,-1,-1,-1,-1,-1,-1,-1,-1,-1,-1,-1,-1,-1,-1,-1,-1,-1,-1,-1,-1,-1,-1,-1,-1,-1,-1,-1,-1,-1,-1,-1,-1,-1,-1,-1,-1,-1,-1,-1,-1,-1,-1,-1,-1,-1,-1,-1,-1,-1,-1,-1],"loss_changes":[2.689514E3,9.205875E2,8.0524634E2,2.395404E2,3.7619678E2,3.0387006E2,1.5019653E2,1.7434912E2,7.6880066E1,3.304887E2,9.040053E1,1.5973E2,1.4929156E2,6.212787E1,5.5453613E1,8.0506836E1,9.530121E1,3.4119263E1,1.939933E1,2.1247546E2,1.7489667E2,6.930948E1,3.1803291E1,3.0016754E1,3.4783016E1,3.0685411E1,5.235376E1,2.6501099E1,1.1338719E1,2.6344116E1,1.0523239E1,2.2464966E1,2.2353027E1,4.1109924E1,3.884871E1,2.2277872E1,2.5911695E1,6.3105164E0,8.571552E0,1.12412964E2,5.8204998E1,8.585936E1,5.8384945E1,4.7232178E1,3.8105835E1,1.4668336E1,1.3695293E1,7.3586273E0,1.7274132E1,9.909867E0,3.191753E1,1.1032513E1,2.586004E1,3.0894165E1,2.033316E1,1.7256104E1,8.968628E0,1.1708906E1,6.9621334E0,1.8143005E1,8.888184E0,8.1838455E0,7.557907E0,0E0,0E0,0E0,0E0,0E0,0E0,0E0,0E0,0E0,0E0,0E0,0E0,0E0,0E0,0E0,0E0,0E0,0E0,0E0,0E0,0E0,0E0,0E0,0E0,0E0,0E0,0E0,0E0,0E0,0E0,0E0,0E0,0E0,0E0,0E0,0E0,0E0,0E0,0E0,0E0,0E0,0E0,0E0,0E0,0E0,0E0,0E0,0E0,0E0,0E0,0E0,0E0,0E0,0E0,0E0,0E0,0E0,0E0,0E0,0E0,0E0,0E0,0E0,0E0],"parents":[2147483647,0,0,1,1,2,2,3,3,4,4,5,5,6,6,7,7,8,8,9,9,10,10,11,11,12,12,13,13,14,14,15,15,16,16,17,17,18,18,19,19,20,20,21,21,22,22,23,23,24,24,25,25,26,26,27,27,28,28,29,29,30,30,31,31,32,32,33,33,34,34,35,35,36,36,37,37,38,38,39,39,40,40,41,41,42,42,43,43,44,44,45,45,46,46,47,47,48,48,49,49,50,50,51,51,52,52,53,53,54,54,55,55,56,56,57,57,58,58,59,59,60,60,61,61,62,62],"right_children":[2,4,6,8,10,12,14,16,18,20,22,24,26,28,30,32,34,36,38,40,42,44,46,48,50,52,54,56,58,60,62,64,66,68,70,72,74,76,78,80,82,84,86,88,90,92,94,96,98,100,102,104,106,108,110,112,114,116,118,120,122,124,126,-1,-1,-1,-1,-1,-1,-1,-1,-1,-1,-1,-1,-1,-1,-1,-1,-1,-1,-1,-1,-1,-1,-1,-1,-1,-1,-1,-1,-1,-1,-1,-1,-1,-1,-1,-1,-1,-1,-1,-1,-1,-1,-1,-1,-1,-1,-1,-1,-1,-1,-1,-1,-1,-1,-1,-1,-1,-1,-1,-1,-1,-1,-1,-1],"split_conditions":[2.3E1,3.713572E0,4.8520303E0,5E0,5E0,5.1E1,5.1E1,1E0,2E0,3.75793E1,2E0,3.295837E0,3.3672957E0,4.9E1,4.3E1,3E0,2.11557E1,4.8714285E0,2E0,5.3033047E0,1.83836E1,3E0,4.8520303E0,1E0,4.732857E0,1.9E1,1.08E2,5.7745514E0,2.522911E-3,1.5E0,1E0,2E0,1E0,1E0,2.89479E1,4.4E1,1E0,-1.117951E2,2E0,3E0,4.7885714E0,1E0,5.00875E1,2.44473E1,1E0,3.533158E-3,4.772857E0,1.426234E-3,1E0,-4.31905E1,6E0,7.1E1,2.4849067E0,1.5E0,4.8414288E0,3E0,1E0,-4.39476E1,1.08E2,5.866468E0,-8.0147E1,3.87168E1,9.7E1,-6.929664E-2,-5.292004E-2,-4.304114E-2,-2.2581741E-2,-5.3090096E-2,-3.25682E-2,-9.564913E-3,-2.8590376E-2,-1.5379361E-2,6.22149E-3,-1.704769E-5,3.5004742E-2,3.0736256E-2,-4.7324385E-2,-4.529852E-2,-1.5872683E-2,-3.0395735E-2,-1.3014699E-2,-1.770317E-2,6.8520172E-3,5.5724224E-3,3.1323463E-2,-4.748018E-3,-3.9594546E-2,-1.0796715E-2,2.4076434E-2,2.4406163E-2,5.2176923E-2,-1.2873368E-2,1.04722E-2,-5.364918E-4,2.0280948E-2,-4.6772514E-2,-2.9119497E-2,-2.0832207E-2,9.189371E-4,-2.2181986E-2,-4.856502E-3,2.9197277E-3,1.98486E-2,-1.6569417E-2,4.0493193E-3,-4.233706E-3,1.6380675E-2,1.4944329E-2,3.0650182E-2,2.9725922E-2,4.8397977E-2,2.3725798E-2,5.4645535E-2,3.1505708E-2,4.3813735E-2,-1.5988873E-2,8.128853E-3,2.7816145E-2,3.3723053E-3,3.9337292E-2,5.223601E-2,4.875622E-2,6.1430078E-2,5.6978273E-3,2.830995E-2,4.0690564E-2,2.2344435E-2],"split_indices":[12,14,14,4,4,12,12,15,12,2,12,14,14,15,15,21,2,38,15,14,3,5,14,15,38,0,12,14,37,7,1,19,1,7,3,15,27,3,21,19,38,50,2,2,1,37,38,37,8,3,4,15,14,7,38,7,8,3,15,14,3,2,15,0,0,0,0,0,0,0,0,0,0,0,0,0,0,0,0,0,0,0,0,0,0,0,0,0,0,0,0,0,0,0,0,0,0,0,0,0,0,0,0,0,0,0,0,0,0,0,0,0,0,0,0,0,0,0,0,0,0,0,0,0,0,0,0],"split_type":[0,0,0,0,0,0,0,0,0,0,0,0,0,0,0,0,0,0,0,0,0,0,0,0,0,0,0,0,0,0,0,0,0,0,0,0,0,0,0,0,0,0,0,0,0,0,0,0,0,0,0,0,0,0,0,0,0,0,0,0,0,0,0,0,0,0,0,0,0,0,0,0,0,0,0,0,0,0,0,0,0,0,0,0,0,0,0,0,0,0,0,0,0,0,0,0,0,0,0,0,0,0,0,0,0,0,0,0,0,0,0,0,0,0,0,0,0,0,0,0,0,0,0,0,0,0,0],"sum_hessian":[2.3897E4,1.3778E4,1.0119E4,4.994E3,8.784E3,5.735E3,4.384E3,3.911E3,1.083E3,7.118E3,1.666E3,2.873E3,2.862E3,2.056E3,2.328E3,1.522E3,2.389E3,7.65E2,3.18E2,5.067E3,2.051E3,9.4E2,7.26E2,8.1E2,2.063E3,9.61E2,1.901E3,1.672E3,3.84E2,1.91E3,4.18E2,9.18E2,6.04E2,1.294E3,1.095E3,5.5E2,2.15E2,1.31E2,1.87E2,3.75E3,1.317E3,1.295E3,7.56E2,4.35E2,5.05E2,3.56E2,3.7E2,2.55E2,5.55E2,4.28E2,1.635E3,3.04E2,6.57E2,1.302E3,5.99E2,1.039E3,6.33E2,2.53E2,1.31E2,1.255E3,6.55E2,1.61E2,2.57E2,3.77E2,5.41E2,3.97E2,2.07E2,3.32E2,9.62E2,6.22E2,4.73E2,3.76E2,1.74E2,1.24E2,9.1E1,2E0,1.29E2,2.9E1,1.58E2,2.026E3,1.724E3,3.17E2,1E3,6.41E2,6.54E2,6.07E2,1.49E2,1.45E2,2.9E2,2.28E2,2.77E2,2.67E2,8.9E1,1.14E2,2.56E2,1.13E2,1.42E2,4.4E2,1.15E2,1.11E2,3.17E2,1.28E3,3.55E2,2.11E2,9.3E1,2.38E2,4.19E2,7.71E2,5.31E2,2.95E2,3.04E2,9.92E2,4.7E1,2.9E2,3.43E2,6.8E1,1.85E2,8.7E1,4.4E1,8.22E2,4.33E2,2.64E2,3.91E2,7.6E1,8.5E1,1.65E2,9.2E1],"tree_param":{"num_deleted":"0","num_feature":"60","num_nodes":"127","size_leaf_vector":"1"}},{"base_weights":[6.795355E-4,-2.7791753E-1,3.7464002E-1,-4.8324308E-1,-5.1093973E-2,1.8368807E-1,5.980562E-1,-8.294517E-1,-3.4597212E-1,1.3790636E-1,-2.522658E-1,4.9499135E-2,4.6883053E-1,7.3733693E-1,4.4630927E-1,-3.4034047E-1,-9.244925E-1,2.4252E-1,-4.3120086E-1,-1.6698681E-1,3.3368146E-1,-4.9701375E-1,-1.6363213E-2,-1.458974E-2,3.9483714E-1,9.548327E-2,5.4932076E-1,3.9439104E-2,7.683113E-1,3.4687525E-1,6.398939E-1,-1.8481505E-1,-6.7629266E-1,-1.0308491E0,-6.3781255E-1,5.820103E-1,-1.5267848E-2,-6.588975E-1,-2.3606923E-1,-7.6052487E-1,-6.384426E-2,2.1663891E-2,5.4235584E-1,-6.7087E-1,-2.4747565E-1,-4.7383252E-1,1.4163655E-1,-1.9675383E-1,1.19285844E-1,5.001467E-1,4.0100515E-2,-1.0458141E-2,4.094168E-1,6.2145156E-1,2.8516102E-1,3.2359895E-1,-4.304106E-1,6.224275E-1,8.952575E-1,2.3118566E-1,5.210928E-1,-1.24058135E-1,6.757434E-1,-1.5259315E-2,1.5034385E-2,-3.8063224E-2,-8.197289E-4,-5.8980793E-2,-4.456623E-2,-1.1360603E-2,-3.563247E-2,1.4100248E-2,3.971595E-2,-1.0956137E-2,1.5198791E-2,-4.984324E-2,-2.933841E-2,-1.4548726E-2,2.7591089E-2,-8.623954E-3,-4.3352123E-2,-1.5166439E-2,4.807259E-3,-3.950174E-3,1.8354036E-2,3.5073757E-4,3.0273734E-2,-1.292742E-2,-4.2451367E-2,-1.6631413E-2,2.3434531E-2,-5.058818E-2,-1.7653363E-2,-7.237816E-4,2.9124985E-2,-2.4740122E-2,-7.0364038E-3,-1.9892287E-2,8.420268E-3,1.4544508E-2,3.592719E-2,1.1289247E-2,-1.5057817E-2,1.0064734E-2,-1.1848954E-2,2.4379315E-2,-3.1145489E-2,3.4530792E-2,1.8564649E-2,2.408398E-2,8.938031E-3,2.1133875E-2,-3.6881637E-2,-3.16145E-2,7.964889E-3,3.5783824E-2,1.5174033E-2,4.714732E-2,2.035347E-2,1.944803E-2,4.8641507E-3,3.230361E-2,9.92072E-3,-3.978468E-2,6.951734E-3,4.1979473E-2,2.6735878E-2],"categories":[],"categories_nodes":[],"categories_segments":[],"categories_sizes":[],"default_left":[0,0,0,0,0,0,0,0,0,0,0,0,0,0,0,0,0,0,0,0,0,0,0,0,0,0,0,0,0,0,0,0,0,0,0,0,0,0,0,0,0,0,0,0,0,0,0,0,0,0,0,0,0,0,0,0,0,0,0,0,0,0,0,0,0,0,0,0,0,0,0,0,0,0,0,0,0,0,0,0,0,0,0,0,0,0,0,0,0,0,0,0,0,0,0,0,0,0,0,0,0,0,0,0,0,0,0,0,0,0,0,0,0,0,0,0,0,0,0,0,0,0,0,0,0,0,0],"id":13,"left_children":[1,3,5,7,9,11,13,15,17,19,21,23,25,27,29,31,33,35,37,39,41,43,45,47,49,51,53,55,57,59,61,63,65,67,69,71,73,75,77,79,81,83,85,87,89,91,93,95,97,99,101,103,105,107,109,111,113,115,117,119,121,123,125,-1,-1,-1,-1,-1,-1,-1,-1,-1,-1,-1,-1,-1,-1,-1,-1,-1,-1,-1,-1,-1,-1,-1,-1,-1,-1,-1,-1,-1,-1,-1,-1,-1,-1,-1,-1,-1,-1,-1,-1,-1,-1,-1,-1,-1,-1,-1,-1,-1,-1,-1,-1,-1,-1,-1,-1,-1,-1,-1,-1,-1,-1,-1,-1],"loss_changes":[2.4859417E3,6.3681006E2,4.3448535E2,3.4079553E2,2.470988E2,2.1019351E2,9.8880615E1,9.437634E1,2.5795892E2,2.0007858E2,1.817469E2,8.271426E1,5.2776855E1,5.2844727E1,4.3068817E1,1.727396E1,5.132849E1,5.698211E1,1.9938324E2,8.0209595E1,1.3287788E2,6.686191E1,1.1600428E2,7.691671E1,2.1833878E1,1.0414211E1,2.737497E1,1.4158084E1,4.2815186E1,2.9870392E1,2.0952972E1,1.3474658E1,5.87516E0,2.4728271E1,1.4095886E1,1.7673935E1,2.421106E1,4.9924927E1,1.0484831E2,1.2002075E1,4.286533E1,2.8507435E1,4.1321075E1,6.662738E1,3.894136E1,2.64077E1,8.2115585E1,2.2239433E1,4.6246468E1,2.0402145E1,8.622418E0,1.1319818E1,6.6787415E0,1.9381409E1,6.437706E0,7.251369E0,4.862721E0,3.229019E1,2.871753E1,1.889149E1,2.3786407E1,6.2952156E0,1.637259E1,0E0,0E0,0E0,0E0,0E0,0E0,0E0,0E0,0E0,0E0,0E0,0E0,0E0,0E0,0E0,0E0,0E0,0E0,0E0,0E0,0E0,0E0,0E0,0E0,0E0,0E0,0E0,0E0,0E0,0E0,0E0,0E0,0E0,0E0,0E0,0E0,0E0,0E0,0E0,0E0,0E0,0E0,0E0,0E0,0E0,0E0,0E0,0E0,0E0,0E0,0E0,0E0,0E0,0E0,0E0,0E0,0E0,0E0,0E0,0E0,0E0,0E0,0E0,0E0],"parents":[2147483647,0,0,1,1,2,2,3,3,4,4,5,5,6,6,7,7,8,8,9,9,10,10,11,11,12,12,13,13,14,14,15,15,16,16,17,17,18,18,19,19,20,20,21,21,22,22,23,23,24,24,25,25,26,26,27,27,28,28,29,29,30,30,31,31,32,32,33,33,34,34,35,35,36,36,37,37,38,38,39,39,40,40,41,41,42,42,43,43,44,44,45,45,46,46,47,47,48,48,49,49,50,50,51,51,52,52,53,53,54,54,55,55,56,56,57,57,58,58,59,59,60,60,61,61,62,62],"right_children":[2,4,6,8,10,12,14,16,18,20,22,24,26,28,30,32,34,36,38,40,42,44,46,48,50,52,54,56,58,60,62,64,66,68,70,72,74,76,78,80,82,84,86,88,90,92,94,96,98,100,102,104,106,108,110,112,114,116,118,120,122,124,126,-1,-1,-1,-1,-1,-1,-1,-1,-1,-1,-1,-1,-1,-1,-1,-1,-1,-1,-1,-1,-1,-1,-1,-1,-1,-1,-1,-1,-1,-1,-1,-1,-1,-1,-1,-1,-1,-1,-1,-1,-1,-1,-1,-1,-1,-1,-1,-1,-1,-1,-1,-1,-1,-1,-1,-1,-1,-1,-1,-1,-1,-1,-1,-1],"split_conditions":[2.3E1,2.44473E1,5.8E1,1E0,1.99447E1,1E0,1.4E1,-3.35854E1,-3.35854E1,3.70384E1,1E0,4.55309E1,4.7214284E0,4.58E0,1.07E2,1E5,4E0,3.01E4,3E0,9.04909E-4,1E0,